{"dense_in": {"kernel": [-0.027302797883749008, -0.0769045352935791, -0.1684834212064743, 0.16215133666992188, -0.2623421549797058, 0.06665583699941635, -0.24392962455749512, -0.4131576120853424, -0.004120574798434973, -0.0554436594247818, -0.4357756972312927, 0.3599344789981842, 0.23178112506866455, -0.1717202514410019, -0.06434332579374313, -0.08252022415399551, -0.2973848581314087, 0.13069282472133636, -0.03467917442321777, 0.27148720622062683, -0.2303772270679474, 0.2935662865638733, 0.16628144681453705, -0.0809907615184784, 0.2530900537967682, 0.3390597105026245, -0.08027403056621552, 0.03083781711757183, -0.21713468432426453, 0.11907322704792023, 0.3868868350982666, -0.14936093986034393, 0.2549479305744171, 0.19292262196540833, 0.10305183380842209, -0.06555639207363129, -0.18403512239456177, -0.24279023706912994, 0.263793408870697, 0.08026248961687088, 0.11355509608983994, 0.21146216988563538, 0.2639162242412567, 0.23801498115062714, -0.1375630646944046, 0.13326074182987213, 0.22230328619480133, 0.2029690444469452, -0.044782329350709915, -0.1813345104455948, -0.14383387565612793, -0.12035639584064484, -0.286410391330719, 0.05735412985086441, 0.008526716381311417, -0.10994119197130203, -0.28147563338279724, 0.01112508587539196, 0.059109728783369064, 0.009096120484173298, 0.1489589810371399, 0.13556018471717834, 0.2315341830253601, 0.19952313601970673, -0.36105287075042725, -0.2628261148929596, 0.1951233595609665, 0.12536412477493286, 0.015813836827874184, 0.3515080511569977, -0.42570656538009644, 0.13838765025138855, -0.11766399443149567, 0.1740281581878662, -0.2837417423725128, -0.18406064808368683, -0.281057208776474, -0.4365171790122986, 0.15395016968250275, 0.018926240503787994, 0.41795167326927185, -0.3334164619445801, -0.24053746461868286, -0.4002213776111603, 0.37042662501335144, -0.28054308891296387, 0.32078006863594055, -0.22200092673301697, 0.14946220815181732, -0.19955164194107056, -0.023695502430200577, -0.2325761318206787, -0.41381776332855225, -0.3527080714702606, -0.36175957322120667, -0.20376646518707275], "bias": [-0.021248554810881615, -0.06198854371905327, -0.06257323175668716, -0.05617569386959076, 0.05023162439465523, -0.010344542562961578, -0.09437780827283859, -0.02918759360909462, -0.07154729962348938, -0.10438218712806702, 0.06652722507715225, -0.0936129167675972, -0.09742515534162521, -0.03388425335288048, -0.06769271194934845, -0.07389946281909943, 0.013634603470563889, 0.05135881528258324, 0.11991175264120102, -0.10953837633132935, 0.09323029220104218, -0.07414877414703369, -0.07184285670518875, 0.0551249161362648, -0.00567589933052659, -0.045342959463596344, -0.03840287774801254, -0.008895684964954853, -0.01981031522154808, -0.06262712925672531, -0.10188813507556915, -0.017218781635165215], "shape_in": 3, "shape_out": 32}, "gru": {"kernel": [-0.007335956674069166, 0.06507313251495361, 0.04656956344842911, 0.2328753024339676, 0.08941430598497391, 0.02713182382285595, -0.14789226651191711, 0.05434023216366768, 0.09928615391254425, -0.0791628509759903, -0.023363059386610985, -0.010956326499581337, -0.10879170894622803, -0.07345623522996902, -0.221046581864357, -0.21252119541168213, 0.06482982635498047, -0.06835116446018219, -0.08495956659317017, -0.09349076449871063, -0.10589727014303207, -0.014863026328384876, 0.15232433378696442, -0.3096568286418915, -0.24962584674358368, 0.21951055526733398, -0.3976832926273346, 0.1408701092004776, 0.10261096805334091, 0.11288943141698837, 0.08530211448669434, 0.03689868003129959, 0.20132414996623993, -0.20785512030124664, 0.08037005364894867, 0.10389445722103119, 0.08838158845901489, -0.26897555589675903, 0.13212648034095764, -0.27566131949424744, -0.18893344700336456, -0.23298676311969757, 0.05756235495209694, 0.12982110679149628, -0.011067070066928864, 0.1592833399772644, -0.3406274914741516, 0.08098769187927246, -0.1673516184091568, 0.09009136259555817, -0.22020922601222992, -0.14223577082157135, -0.27582260966300964, 0.32003191113471985, -0.21102938055992126, -0.2606627345085144, 0.05514509603381157, -0.018780913203954697, 0.08592004328966141, 0.35016873478889465, 0.0758223757147789, 0.4032061994075775, -0.10383718460798264, -0.4536435902118683, -0.005139858927577734, 0.16798487305641174, 0.05444440618157387, 0.06545579433441162, 0.11709477752447128, -0.19486039876937866, 0.14906767010688782, -0.21082042157649994, -0.2352399230003357, -0.1311267763376236, -0.04882524535059929, -0.10152541100978851, -0.11600415408611298, -0.059823427349328995, 0.01632407121360302, 0.2054705023765564, 0.00833813101053238, 0.2619478702545166, 0.12471818923950195, -0.05629696324467659, 0.018323369324207306, 0.1502714455127716, 0.11637900769710541, 0.021521329879760742, 0.09358708560466766, 0.11549094319343567, -0.09633447974920273, 0.07087217271327972, 0.04946499690413475, 0.27179983258247375, 0.14184921979904175, 0.23009075224399567, 0.013812478631734848, 0.027360066771507263, 0.1019197627902031, -0.292034775018692, -0.20700116455554962, 0.08187586814165115, 0.05797889083623886, 0.1551840752363205, -0.014746448025107384, 0.11171141266822815, 0.03666666895151138, -0.011387009173631668, 0.0028540147468447685, 0.05031946301460266, 0.09168758988380432, -0.0003253169415984303, -0.008230742067098618, 0.14880181849002838, 0.006020206958055496, 0.10675094276666641, 0.17653825879096985, -0.14217233657836914, 0.21915104985237122, -0.18436475098133087, 0.15466898679733276, -0.00024638124159537256, 0.03415856510400772, 0.15981698036193848, 0.0764833465218544, -0.07868128269910812, -0.010723968036472797, 0.04151353985071182, 0.1671571582555771, -0.14264026284217834, 0.188432514667511, -0.12190642207860947, -0.05498481169342995, 0.1006518304347992, -0.09017623960971832, -0.042534030973911285, 0.16157792508602142, -0.1365204155445099, -0.1210392490029335, -0.029401378706097603, -0.05379592999815941, 0.0008239905582740903, 0.07883597910404205, 0.024821864441037178, -0.08546781539916992, 0.10449554026126862, -0.06062920391559601, -0.0644054263830185, -0.0015980887692421675, 0.13644888997077942, -0.09026610106229782, 0.07759766280651093, -0.06803172826766968, 0.15321777760982513, 0.017471203580498695, -0.08334902673959732, 0.0029735267162323, -0.15586860477924347, -0.12562613189220428, -0.02588261477649212, -0.10147474706172943, -0.05951005220413208, -0.1053282842040062, 0.17519217729568481, -0.0885704830288887, 0.11605512350797653, -0.0621669702231884, -0.07016176730394363, -0.10410048067569733, -0.04642527177929878, 0.18933822214603424, 0.0187176913022995, 0.006470734253525734, -0.14065498113632202, 0.14685671031475067, 0.12022154778242111, 0.014170641079545021, 0.10590481758117676, -0.09001066535711288, 0.15902455151081085, 0.1246199980378151, -0.09589198976755142, -0.03146645426750183, 0.0683320090174675, -0.05575638264417648, 0.1403575986623764, 0.046157509088516235, 0.14122332632541656, -0.10562202334403992, -0.027245011180639267, 0.04165603592991829, 0.019250968471169472, -0.24762867391109467, -0.2369641810655594, -0.24849821627140045, 0.10135069489479065, 0.14963790774345398, -0.0037447353824973106, -0.018162088468670845, -0.06690774112939835, -0.1380087435245514, -0.13394707441329956, 0.20815709233283997, 0.0791197419166565, -0.08446218073368073, -0.054583366960287094, -0.11467614769935608, 0.05883680284023285, -0.182083860039711, -0.07984942942857742, -0.23183099925518036, -0.118303582072258, 0.05656878277659416, 0.10935470461845398, 0.19501115381717682, -0.032341569662094116, -0.24922554194927216, -0.002064812695607543, -0.1462511569261551, 0.10744880139827728, -0.16182991862297058, 0.12745772302150726, 0.20790846645832062, 0.026086948812007904, 0.39078307151794434, -0.26593172550201416, 0.07742172479629517, 0.22522523999214172, 0.10063217580318451, -0.1847609281539917, 0.19726553559303284, -0.23271368443965912, -0.02594960667192936, -0.08502113819122314, 0.10539811849594116, 0.17307673394680023, -0.11635975539684296, 0.10022316873073578, -0.14877912402153015, 0.036341942846775055, -0.07273301482200623, -0.03141583502292633, -0.26185503602027893, -0.09438744932413101, -0.1845942735671997, -0.01580166630446911, -0.18657058477401733, -0.251831591129303, 0.0666278675198555, -0.10950659960508347, -0.19434009492397308, 0.2544739246368408, -0.012467565946280956, 0.3493691682815552, 0.05345287173986435, -0.1409992128610611, -0.03358209505677223, -0.029920902103185654, -0.07141686975955963, 0.032376840710639954, 0.23423297703266144, 0.11726132035255432, 0.03484700992703438, -0.12870369851589203, -0.021871978417038918, -0.048303984105587006, 0.16639171540737152, 0.09882121533155441, -0.027576979249715805, 0.020758667960762978, -0.1567954272031784, 0.13425986468791962, 0.12512342631816864, 0.05984199792146683, 0.12141958624124527, 0.16969147324562073, 0.196169912815094, -0.08278699219226837, 0.07616280764341354, 0.06802565604448318, -0.06197593733668327, -0.14360280334949493, 0.09708786755800247, 0.03678220137953758, -0.00850940216332674, -0.024128515273332596, 0.025819841772317886, 0.20021678507328033, -0.08390339463949203, 0.008428177796304226, 0.13454385101795197, -0.006404604762792587, -0.1680181920528412, -0.1831078976392746, -0.032563548535108566, -0.03537622094154358, 0.1652417778968811, 0.018517274409532547, -0.07236450165510178, 0.08193688839673996, 0.0016900382470339537, -0.1217944547533989, 0.13907161355018616, 0.029100114479660988, 0.08977258950471878, -0.07948952913284302, -0.13349710404872894, 0.1901503950357437, 0.12859709560871124, -0.03454319387674332, 0.18061818182468414, -0.1363660842180252, 0.04612152650952339, -0.1172139048576355, -0.04537862539291382, -0.04068596661090851, 0.14421136677265167, -0.06180594861507416, -0.01010972447693348, 0.09094864130020142, 0.04408890753984451, -0.04628065228462219, 0.019567180424928665, -0.06370005011558533, 0.1092350035905838, -0.09959504753351212, 0.04104897007346153, -0.00751775735989213, 0.09885778278112411, 0.12660324573516846, 0.12416329979896545, -0.051038678735494614, 0.09111097455024719, 0.0782383531332016, 0.09770417213439941, -0.0627577155828476, 0.02377566508948803, -0.1086382120847702, 0.06641220301389694, -0.014098526909947395, 0.055911000818014145, 0.024545270949602127, 0.09685897827148438, 0.1010202094912529, -0.017423346638679504, 0.08114367723464966, 0.1279073804616928, -0.16319100558757782, -0.16740240156650543, 0.024866249412298203, 0.01020313985645771, -0.08739573508501053, 0.128636434674263, 0.12628614902496338, 0.12884122133255005, -0.08222950249910355, 0.07584473490715027, 0.1198391392827034, 0.03381044417619705, 0.1127454861998558, -0.15671564638614655, 0.12796689569950104, 0.13543042540550232, 0.007355547975748777, -0.02434382773935795, 5.344044438970741e-06, 0.01935788244009018, -0.040946114808321, 0.06608317047357559, -0.10539207607507706, 0.036851994693279266, 0.07369378954172134, 0.07312250137329102, -0.08962489664554596, 0.14116787910461426, -0.025519341230392456, 0.04234644025564194, 0.08058999478816986, -0.12060021609067917, -0.10517234355211258, -0.001469092327170074, -0.03672364354133606, -0.0033349948935210705, 0.04660377278923988, -0.129985511302948, -0.014650439843535423, -0.007609898224473, -0.031771376729011536, 0.16041213274002075, 0.03605049476027489, -0.049185335636138916, -0.14550337195396423, -0.08883704990148544, -0.03460415452718735, 0.03839171677827835, -0.01114047784358263, 0.011516931466758251, 0.08048439770936966, -0.08010533452033997, -0.08175166696310043, -0.21639050543308258, -0.17571966350078583, 0.02867261879146099, -0.1260831654071808, 0.0029791458509862423, 0.07477273792028427, 0.17391833662986755, -0.005071442108601332, -0.12933361530303955, -0.128724604845047, -0.1730678677558899, -0.06451264768838882, -0.16528473794460297, -0.03938611224293709, 0.055615708231925964, 0.015301074832677841, 0.27413269877433777, -0.1671796441078186, 0.14524884521961212, 0.31270214915275574, -0.05933418869972229, -0.1282549947500229, 0.15535351634025574, -0.08643972128629684, 0.01012857723981142, -0.010986787267029285, 0.20398561656475067, 0.2294861078262329, -0.19659872353076935, -0.013009706512093544, -0.09772025793790817, 0.10782228410243988, -0.18259000778198242, 0.03668080270290375, -0.018758175894618034, -0.15183667838573456, -0.2597157061100006, -0.01341112982481718, -0.22269998490810394, -0.2182735949754715, -0.06344267725944519, -0.027934502810239792, 0.08612336218357086, 0.27697592973709106, -0.09006385505199432, 0.29419317841529846, -0.1988769769668579, -0.1303531676530838, -0.06492673605680466, -0.045868996530771255, 0.04533754289150238, -0.0471443235874176, -0.014691205695271492, -0.06187647953629494, -0.04915962368249893, -0.12652002274990082, -0.2066504955291748, 0.07432538270950317, 0.11798764020204544, 0.18843092024326324, 0.17685957252979279, 0.1528082937002182, -0.03560976684093475, -0.08842363953590393, -0.0557730458676815, 0.055228956043720245, -0.02917248196899891, 0.16096410155296326, 0.022864501923322678, 0.12806443870067596, 0.10182315856218338, -0.00531679717823863, -0.006324657704681158, 0.14351044595241547, -0.022635571658611298, -0.028650060296058655, 0.09835322201251984, -0.06609417498111725, 0.08763120323419571, 0.017049511894583702, 0.058136019855737686, 0.10627682507038116, 0.03516515716910362, -0.05642237141728401, -0.2975977659225464, -0.23699624836444855, 0.06716521084308624, -0.04428573697805405, 0.15231269598007202, -0.04747554659843445, 0.027167487889528275, -0.18894363939762115, -0.002130108652636409, 0.1599530726671219, 0.03270644322037697, 0.00413944385945797, 0.007935097441077232, -0.08707671612501144, -0.053818169981241226, 0.16997171938419342, -0.10969163477420807, 0.1607048064470291, -0.013617919757962227, -0.15045291185379028, 0.2084149569272995, -0.07613962143659592, 0.04962054640054703, -0.1343996673822403, 0.09445193409919739, -0.06369253993034363, -0.13217946887016296, 0.16812802851200104, -0.04173216223716736, 0.0374172069132328, 0.06201793998479843, 0.09982797503471375, 0.047042280435562134, -0.025590013712644577, -0.023949069902300835, 0.0013620093232020736, -0.12770724296569824, -0.029769068583846092, -0.0045523992739617825, 0.12052688747644424, -0.1452016979455948, -0.0807192251086235, -0.02242438681423664, 0.009818852879106998, 0.08155768364667892, 0.11585647612810135, -0.08863401412963867, -0.006304125301539898, -0.14617414772510529, -0.003322500502690673, -0.01955369859933853, 0.15722206234931946, -0.09288796037435532, -0.12342310696840286, 0.0914003923535347, 0.12419533729553223, 0.03845097869634628, 0.15499481558799744, -0.10756807774305344, -0.09284887462854385, -0.0767289474606514, 0.07764628529548645, -0.07853692024946213, 0.14327682554721832, 0.1406068503856659, -0.1419212371110916, 0.19341903924942017, 0.12863382697105408, -0.03533443436026573, -0.028493188321590424, 0.06266583502292633, -0.04782146215438843, -0.1185968816280365, 0.09863150119781494, 0.06506118923425674, -0.05136746168136597, 0.20746012032032013, 0.03415941819548607, 0.03268022835254669, -0.02480044774711132, 0.07844329625368118, -0.05725865438580513, 0.050696879625320435, -0.04312935099005699, 0.08862139284610748, -0.059021901339292526, 0.16304177045822144, -0.1120017021894455, 0.042530979961156845, 0.044582925736904144, 0.12900906801223755, 0.023382728919386864, -0.10636550188064575, -0.07081008702516556, -0.05868907272815704, 0.21345843374729156, -0.3658142387866974, -0.11464598774909973, 0.18027035892009735, -0.5301520824432373, -0.23791135847568512, -0.004184545949101448, -0.419053852558136, 0.006928530987352133, -0.055949270725250244, 0.07402379810810089, 0.2261979877948761, -0.11552780866622925, -0.2834794223308563, -0.03558920696377754, 0.09877093881368637, -0.2926090657711029, -0.2359323650598526, -0.585602879524231, 0.25505030155181885, -0.08958457410335541, -0.16708897054195404, 0.030762461945414543, -0.2565670609474182, -0.15124082565307617, -0.06234198808670044, -0.20680874586105347, 0.025974035263061523, -0.0958266407251358, -0.2614038586616516, -0.05685305967926979, -0.23275619745254517, -0.1594288945198059, -0.3714953660964966, -0.011529779992997646, -0.1649119108915329, 0.032011646777391434, -0.20161718130111694, -0.3753400444984436, -0.14993560314178467, -0.2561282813549042, -0.004426422528922558, -0.1679818332195282, -0.17028260231018066, -0.33622053265571594, -0.2763000428676605, -0.10473038256168365, -0.39049091935157776, -0.06437568366527557, -0.08332788944244385, -0.1342761218547821, -0.2674720585346222, -0.2548545002937317, -0.16525237262248993, -0.08296863734722137, 0.001688007963821292, -0.3501289188861847, -0.006793678738176823, -0.7565551996231079, -0.0794147178530693, -0.05743347853422165, 0.14418718218803406, -0.031003911048173904, 0.0048132399097085, 0.07682570070028305, -0.0863880068063736, 0.031765393912792206, -0.031020700931549072, 0.2359258085489273, -0.06294894963502884, 0.03890496864914894, 0.1623680144548416, 0.05360349640250206, -0.06367549300193787, -0.01575288362801075, 0.1644255518913269, 0.09166079014539719, -0.030922748148441315, 0.1374768763780594, 0.18078294396400452, -0.23518557846546173, -0.04954158142209053, 0.030628865584731102, 0.18021558225154877, 0.2961449921131134, 0.006510894279927015, 0.01303517073392868, 0.10411683470010757, 0.0652671828866005, 0.17165471613407135, 0.054269831627607346, 0.1427827626466751, -0.01747928187251091, -0.043441399931907654, -0.01865813508629799, 0.120180644094944, -0.0847523882985115, -0.11136963218450546, -0.0504193976521492, 0.13076883554458618, 0.18204571306705475, 0.16020408272743225, -0.08822917193174362, -0.19939005374908447, 0.0807340070605278, 0.10695136338472366, -0.06096085533499718, 0.012094171717762947, -0.0753970518708229, -0.1281396448612213, -0.1541435271501541, -0.018322255462408066, -0.08589626848697662, -0.041248928755521774, -0.05774735286831856, -0.038463056087493896, 0.038335058838129044, 0.12457133084535599, 0.10981346666812897, 0.0022370496299117804, -0.10404719412326813, -0.0024162218905985355, -0.02671058662235737, 0.16042225062847137, 0.15256763994693756, 0.017925944179296494, 0.11448554694652557, -0.05705374851822853, 0.07426366955041885, -0.21956993639469147, -0.15239843726158142, 0.03905143588781357, -0.1280999779701233, -0.014343321323394775, 0.007501387968659401, 0.0391392782330513, 0.09960800409317017, 0.18010950088500977, 0.043089352548122406, 0.2159305065870285, 0.00490664504468441, -0.08399782329797745, 0.04852074384689331, -0.09519337862730026, 0.09674716740846634, 0.040921200066804886, -0.13456688821315765, 0.13358187675476074, -0.19227160513401031, -0.05004991218447685, 0.14522449672222137, -0.11918175965547562, 0.2736551761627197, -0.07267343252897263, -0.03636309877038002, 0.13654407858848572, 0.10797317326068878, -0.17152458429336548, -0.04257889837026596, 0.12017504125833511, 0.07339489459991455, 0.00304578454233706, -0.10491788387298584, 0.010456066578626633, 0.2412131130695343, -0.008993864059448242, -0.012861343100667, -0.04455694928765297, 0.089913509786129, 0.024536069482564926, 0.11985928565263748, -0.08773280680179596, -0.05232948809862137, -0.12669087946414948, -0.10926299542188644, -0.13311804831027985, 0.1805330067873001, 0.03645369037985802, -0.047627873718738556, 0.15976285934448242, 0.14037808775901794, -0.01726399175822735, -0.02297801524400711, 0.158119335770607, -0.0607900433242321, -0.05479775369167328, -0.15720181167125702, -0.08398930728435516, -0.0994124785065651, 0.18965616822242737, 0.05730603635311127, 0.27912208437919617, -0.28252166509628296, 0.0033016346860677004, 0.10546765476465225, 0.31510376930236816, 0.37012386322021484, 0.12461765855550766, 0.04492764174938202, 0.04107873514294624, 0.09348274767398834, 0.3296797275543213, -0.03218173608183861, -0.1910816878080368, 0.035738926380872726, 0.232370987534523, 0.10409151762723923, 0.2542899549007416, -0.0734025314450264, 0.26838216185569763, 0.10704779624938965, -0.26377245783805847, 0.2226855605840683, 0.15498942136764526, 0.08257565647363663, 0.6189674139022827, 0.3453827500343323, -0.09165859967470169, 0.038400888442993164, -0.11216116696596146, 0.1681603342294693, -0.1674007922410965, 0.12243282049894333, -0.2808222770690918, -0.364219069480896, 0.1649475395679474, 0.26645198464393616, -0.2307736724615097, 0.2703409194946289, 0.1708659827709198, 0.4163348078727722, 0.022809410467743874, -0.2514432370662689, 0.28539541363716125, 0.020277077332139015, 0.344607949256897, -0.06432586163282394, 0.2817023992538452, 0.05263420566916466, 0.15776221454143524, 0.17718353867530823, 0.26879996061325073, -0.18908049166202545, 0.39391976594924927, 0.05650392547249794, 0.05391038954257965, 0.062093377113342285, -0.04347144439816475, -0.3812829554080963, -0.11059430986642838, 0.009889759123325348, -0.0846547856926918, 0.21233974397182465, -0.08313404768705368, -0.034470126032829285, -0.016167065128684044, -0.15047746896743774, 0.09780008345842361, 0.003227768698707223, -0.2946587800979614, 0.20105226337909698, 0.27172860503196716, 0.0919899120926857, -0.2152147740125656, -0.1453767865896225, -0.04815880209207535, 0.052031029015779495, 0.028969688341021538, -0.06647337228059769, -0.030560635030269623, -0.18253740668296814, -0.06667757779359818, 0.07304009050130844, -0.14603222906589508, 0.012916324660182, -0.08659227192401886, -0.07580690085887909, 0.12333405017852783, 0.08989858627319336, -0.16804617643356323, -0.10849461704492569, -0.05190879851579666, -0.0011871616588905454, -0.13438059389591217, 0.02652442269027233, -0.09830943495035172, 0.019686471670866013, 0.1924246996641159, 0.0876084491610527, 0.0559975691139698, -0.027921896427869797, -0.023114124312996864, -0.1693999469280243, -0.14931266009807587, -0.2160351723432541, 0.0629814937710762, -0.05902567133307457, -0.10672762244939804, -0.0740470439195633, -0.21826104819774628, -0.03182895854115486, -0.08421368151903152, 0.044669006019830704, 0.043901633471250534, -0.17441391944885254, 0.12101785093545914, -0.06292899698019028, -0.16753870248794556, 0.07085053622722626, -0.23274563252925873, 0.06858961284160614, -0.0013548770220950246, 0.19949765503406525, 0.0736621767282486, -0.042934663593769073, 0.04938036575913429, -0.06472139060497284, 0.04330846667289734, 0.020613117143511772, -0.018775492906570435, 0.031229978427290916, -0.07123631238937378, -0.05603058263659477, -0.07508166879415512, 0.13783442974090576, 0.09894673526287079, -0.11159979552030563, -0.04183817654848099, -0.15211594104766846, -0.07810638844966888, 0.09939538687467575, -0.1428145468235016, -0.15780285000801086, -0.03366551920771599, 0.07439485192298889, 0.11559347063302994, 0.09514335542917252, 0.07369493693113327, -0.1258016973733902, 0.11297067999839783, -0.1650126427412033, -0.12269283831119537, 0.08883262425661087, -0.08115862309932709, -0.03256499767303467, 0.0340920053422451, 0.03380029648542404, -0.10540453344583511, 0.1341570019721985, 0.0725092664361, -0.17042513191699982, -0.07406079024076462, -0.06944862008094788, 0.046511080116033554, 0.18435809016227722, 0.11092211306095123, 0.06905610859394073, 0.12452372163534164, -0.021555786952376366, -0.1789717972278595, -0.044940635561943054, 0.05296851322054863, 0.15907502174377441, 0.10678956657648087, -0.18459954857826233, 0.05259661003947258, 0.10479182749986649, 0.13703246414661407, -0.1767532229423523, -0.04522234573960304, -7.507787813665345e-05, -0.10273223370313644, 0.19834838807582855, 0.15473264455795288, 0.09387591481208801, -0.15160982310771942, -0.12512081861495972, -0.1957700103521347, 0.1624796837568283, -0.07431205362081528, 0.019183440133929253, 0.2510316073894501, -0.10491853207349777, 0.3197040855884552, 0.05336048826575279, -0.13239072263240814, -0.14392133057117462, 0.14872828125953674, -0.8106473684310913, -0.09402251988649368, -0.05011754110455513, -0.32592111825942993, -0.0671122819185257, 0.12433546036481857, -0.1046149805188179, 0.1011253297328949, 0.1905771940946579, -0.34308576583862305, -0.3369978666305542, 0.33852052688598633, -0.10563511401414871, -0.1800927370786667, -0.5069615244865417, 0.11170832067728043, 0.10740113258361816, -0.05191607028245926, -0.03549385815858841, -0.2287103682756424, 0.02287147380411625, -0.04219219833612442, -0.03208855539560318, -0.011056879535317421, -0.06915156543254852, -0.4394676089286804, 0.46094799041748047, 0.0243584755808115, -0.124301478266716, -0.24171650409698486, -0.15512502193450928, -0.4391850233078003, 0.21772326529026031, 0.00013825236237607896, -0.08375528454780579, -0.3536938428878784, -0.24443301558494568, 0.1498464047908783, 0.27998748421669006, 0.11923084408044815, -0.054144036024808884, -0.36553651094436646, -0.1335262656211853, -0.41563111543655396, -0.014686953276395798, -0.02967381663620472, -0.34544163942337036, 0.1528773009777069, -0.06731527298688889, 0.057940542697906494, -0.26125025749206543, 0.1355145275592804, -0.19797995686531067, 0.0055926647037267685, -0.7326698303222656, 0.08408858627080917, 0.11704220622777939, -0.059321314096450806, -0.10682295262813568, 0.07704614847898483, -0.15819784998893738, -0.13177677989006042, -0.07229108363389969, -0.04409103840589523, 0.01514600869268179, 0.02985500544309616, 0.10909049957990646, -0.09179562330245972, -0.2084445357322693, 0.14693865180015564, 0.043596912175416946, -0.10385412722826004, -0.012971227057278156, -0.07515836507081985, -0.23794764280319214, -0.03761255741119385, -0.15684069693088531, -0.1559775322675705, 0.033416684716939926, -0.17881950736045837, 0.07673061639070511, -0.04746100306510925, -0.14819735288619995, 0.1545237898826599, -0.03352585807442665, 0.01417380291968584, -0.37053194642066956, -0.09696230292320251, -0.029383674263954163, 0.1035260483622551, -0.27387821674346924, 0.08533656597137451, 0.04784144088625908, -0.16262945532798767, -0.02809910848736763, -0.008081589825451374, 0.17126287519931793, -0.12548206746578217, -0.021554715931415558, 0.0070153046399354935, 0.08363599330186844, -0.14621010422706604, 0.12281104177236557, 0.1193125918507576, -0.30191418528556824, -0.012757384218275547, -0.00855042040348053, -0.08276873826980591, -0.14777356386184692, 0.004509094636887312, 0.08335001021623611, -0.24393294751644135, -0.06613316386938095, 0.09694977849721909, -0.01411932148039341, -0.2764225900173187, -0.21281319856643677, -0.022875847294926643, -0.12027932703495026, 0.1356605738401413, -0.03168407455086708, -0.08698464184999466, -0.14216025173664093, -0.12722158432006836, 0.06180771067738533, 0.03758030757308006, -0.19671721756458282, -0.192066952586174, -0.028209859505295753, 0.04106610268354416, -0.0800313949584961, 0.14077410101890564, -0.04102170094847679, -0.13894954323768616, 0.12723132967948914, -0.044005200266838074, -0.09089808911085129, 0.10523778200149536, 0.17391839623451233, 0.09907709807157516, 0.19234499335289001, 0.03647036850452423, -0.025889970362186432, -0.0075598848052322865, 0.0731302872300148, 0.020915083587169647, 0.09479659795761108, -0.0007250920170918107, 0.1869869828224182, 0.09621880948543549, 0.17210020124912262, 0.1316511631011963, 0.03824868053197861, -0.08223912119865417, -0.11756602674722672, -0.056560810655355453, -0.09748393297195435, 0.12474528700113297, -0.14370396733283997, -0.11197708547115326, -0.046598881483078, 0.10003915429115295, -0.07157294452190399, 0.17975997924804688, -0.027012353762984276, -0.07012832909822464, -0.1745910346508026, 0.11517636477947235, 0.007700173184275627, -0.11484536528587341, 0.19637331366539001, -0.11249380558729172, 0.21556027233600616, 0.059518735855817795, -0.06655842065811157, -0.1253790557384491, 0.10665654391050339, -0.23524132370948792, 0.0754517987370491, 0.1855206936597824, -0.08579118549823761, -0.11786295473575592, -0.31984591484069824, -0.012373976409435272, -0.003594340058043599, -0.05112449452280998, 0.13962571322917938, -0.10147582739591599, -0.14663735032081604, 0.20234417915344238, 0.07746864855289459, -0.21038492023944855, 0.14427360892295837, -0.16063818335533142, 0.07872605323791504, 0.22127747535705566, 0.17510230839252472, -0.03835562616586685, -0.040750131011009216, -0.19879333674907684, -0.025079064071178436, -0.037854839116334915, 0.027083467692136765, 0.04703034833073616, -0.1832142472267151, 0.027904493734240532, 0.14953173696994781, 0.07118426263332367, -0.09349086135625839, -0.16763293743133545, -0.10478395223617554, 0.10083764791488647, -0.09795110672712326, -0.056493114680051804, 0.1529870182275772, 0.21039804816246033, 0.014367609284818172, 0.2309039682149887, 0.0382881686091423, 0.04076607525348663, 0.09284369647502899, 0.16242143511772156, -0.006485625635832548, 0.13327465951442719, -0.09707533568143845, 0.08040335029363632, 0.16412359476089478, 0.1573297381401062, 0.04421928897500038, 0.06572362035512924, 0.0432460680603981, -0.1453038454055786, 0.14127793908119202, 0.03602626919746399, -0.12927554547786713, 0.09968848526477814, -0.06532450020313263, 0.09924275428056717, 0.06426394730806351, -0.09261045604944229, 0.012889423407614231, -0.03723544999957085, -0.0047615994699299335, -0.2164119929075241, 0.40848684310913086, 0.09997062385082245, 0.3388933837413788, -0.1656786948442459, -0.16242696344852448, -0.10312679409980774, 0.07789584994316101, -0.00372223905287683, -0.02627822943031788, 0.18339523673057556, -0.1606680452823639, 0.05928712338209152, -0.09996059536933899, -0.043905239552259445, -0.07920315116643906, 0.05954602360725403, 0.19592078030109406, -0.05425453558564186, -0.05263364687561989, -0.09509260207414627, 0.049177929759025574, 0.05808721110224724, 0.11365167051553726, -0.06847457587718964, 0.1232876256108284, 0.05818583071231842, -0.02430787868797779, 0.013793212361633778, -0.08118894696235657, 0.06264784187078476, 0.1523808091878891, 0.1663985401391983, -0.11356724798679352, 0.017415542155504227, 0.16965392231941223, 0.20768842101097107, 0.24659186601638794, -0.012013089843094349, -0.04794581979513168, -0.04773456230759621, -0.07585713267326355, -0.3051098883152008, 0.08243051171302795, -0.1538824737071991, -0.018773475661873817, -0.024892402812838554, 0.01763867773115635, 0.1268894076347351, -0.0004547258431557566, -0.07841689884662628, -0.12575596570968628, 0.01998242363333702, -0.038471583276987076, 0.07702519744634628, 0.11581603437662125, -0.038969606161117554, -0.10590613633394241, -0.043551184237003326, -0.027362070977687836, -0.05585469678044319, -0.04736530780792236, 0.1802072674036026, -0.14577557146549225, -0.02566790208220482, 0.009647108614444733, 0.044045060873031616, 0.13327908515930176, 0.1129922941327095, -0.025422504171729088, -0.031076839193701744, 0.09243731945753098, 0.11631441861391068, 0.05423462763428688, 0.11245095729827881, -0.04154067859053612, 0.07843596488237381, 0.029040301218628883, 0.03548886626958847, -0.12325931340456009, 0.0738634243607521, -0.1420592963695526, -0.18623784184455872, -0.07533509284257889, -0.006333066150546074, -0.01860065385699272, -0.16884629428386688, -0.12025930732488632, -0.1150142177939415, 0.029437853023409843, -0.05812858045101166, -0.006099648308008909, 0.02393166534602642, 0.04170050844550133, -0.08988870680332184, 0.011138303205370903, -0.12777161598205566, 0.06314242631196976, 0.05459573492407799, -0.047892969101667404, -0.04611613601446152, -0.0033595608547329903, 0.07066600769758224, 0.045980460941791534, 0.06512243300676346, -0.02920377068221569, 0.07492147386074066, 0.03808017075061798, -0.08091653138399124, -0.00885678082704544, 0.15622615814208984, -0.0488014817237854, 0.13494376838207245, -0.0020071733742952347, 0.11558571457862854, 0.020178839564323425, -0.06855754554271698, 0.13900817930698395, -0.09715648740530014, -0.015090208500623703, -0.06388483196496964, -0.00845356099307537, -0.06749513745307922, -0.07614647597074509, -0.017747174948453903, 0.07932809740304947, -0.10008528083562851, 0.17071960866451263, 0.14723031222820282, 0.1479482352733612, 0.02253471314907074, 0.14269451797008514, -0.02434999868273735, -0.15135076642036438, 0.05426778644323349, 0.23012271523475647, 0.07030089944601059, -0.13249127566814423, 0.1665181815624237, 0.07656323164701462, -0.08030174672603607, 0.417836457490921, -0.20730902254581451, 0.1218053475022316, 0.28280192613601685, 0.017931049689650536, 0.19880430400371552, 0.12113259732723236, -0.20967158675193787, -0.19275221228599548, -0.06003463268280029, -0.014062901958823204, 0.029551077634096146, -0.3847920894622803, 0.23647914826869965, 0.5994842052459717, -0.2013963907957077, 0.09005048871040344, 0.04470580071210861, -0.07814405113458633, -0.09598611295223236, 0.20772722363471985, -0.3087889850139618, 0.2847251296043396, 0.015605823136866093, 0.08366882055997849, -0.012319428846240044, 0.18995553255081177, 0.06392465531826019, 0.01385478489100933, 0.004909826442599297, -0.40589791536331177, -0.2169211357831955, 0.2507437765598297, 0.10098467767238617, 0.11335190385580063, 0.2546493709087372, 0.15573608875274658, -0.05435565114021301, 0.30767035484313965, -0.03833778575062752, -0.03696508705615997, 0.17207171022891998, -0.006526314653456211, -0.022828437387943268, -0.2823989987373352, 0.29469603300094604, 0.11638230085372925, 0.17772625386714935, 0.03216470032930374, -0.10545855015516281, -0.29068973660469055, -0.18792226910591125, 0.11354722827672958, -0.1757565140724182, 0.1994931846857071, 0.11469010263681412, 0.10514841228723526, 0.06481347978115082, 0.15720140933990479, -0.009694869630038738, 0.16746734082698822, 0.04129450023174286, 0.14970532059669495, -0.03326980397105217, 0.1274017095565796, -0.038218263536691666, 0.08607672154903412, -0.0717400312423706, 0.26269692182540894, 0.3395206928253174, 0.12814830243587494, 0.009514693170785904, -0.013133177533745766, -0.00586810614913702, 0.0291699580848217, -0.08687162399291992, 0.21289443969726562, 0.17841577529907227, 0.10844510793685913, -0.06576023250818253, 0.01736835017800331, -0.1402900069952011, -0.06276597827672958, -0.05699903890490532, -0.19551412761211395, 0.07781007885932922, -0.014582010917365551, 0.013679321855306625, 0.19539305567741394, 0.12989114224910736, 0.13778994977474213, 0.06485971063375473, 0.12806855142116547, -0.04055851325392723, -0.10814542323350906, 0.06214648485183716, 0.04586856812238693, -0.08805568516254425, -0.008028402924537659, 0.1002630889415741, -0.03453369811177254, 0.15185891091823578, -0.038985930383205414, 0.10566003620624542, -0.038381293416023254, 0.0959351509809494, 0.014758670702576637, 0.0011530788615345955, -0.10561694204807281, -0.0239588413387537, 0.13123899698257446, 0.02792157232761383, 0.10912783443927765, 0.04696120321750641, 0.09301938116550446, 0.2071201056241989, -0.12735043466091156, 0.0022726997267454863, -0.12977895140647888, -0.0008824950782582164, 0.047440335154533386, -0.24630184471607208, 0.0338389091193676, -0.023488592356443405, -0.016598092392086983, -0.19632482528686523, -0.183413565158844, 0.15916979312896729, -0.07221674174070358, 0.026628591120243073, 0.1574169248342514, 0.0068587628193199635, -0.06490391492843628, 0.06640715897083282, -0.13664332032203674, 0.04902530834078789, 0.051838647574186325, -0.08907998353242874, 0.10526248067617416, 0.029742931947112083, 0.02311495505273342, 0.07430488616228104, 0.2029120773077011, 0.004179202485829592, 0.08649740368127823, 0.035558994859457016, 0.15968936681747437, 0.08363529294729233, -0.10826631635427475, -0.14206206798553467, -0.03432771563529968, 0.12328869104385376, -0.19198445975780487, -0.019362615421414375, -0.05060511827468872, -0.049734536558389664, 0.011231626383960247, -0.05977325513958931, -0.20280879735946655, 0.10274971276521683, -0.023207098245620728, -0.10109654068946838, 0.04749973118305206, 0.1886460930109024, 0.04805198311805725, -0.06244873255491257, 0.20460091531276703, 0.07682845741510391, 0.04634789749979973, -0.007594678085297346, 0.224897563457489, -0.17198492586612701, 0.12477332353591919, -0.20388439297676086, 0.10996858775615692, 0.10481158643960953, -0.08365726470947266, 0.004179181065410376, -0.15964041650295258, 0.05259782820940018, -0.13953767716884613, 0.10732049494981766, -0.13233216106891632, -0.02093200944364071, -0.17534221708774567, -0.2433958500623703, -0.22440427541732788, 0.04165242612361908, 0.08736813813447952, 0.16279880702495575, 0.1434422731399536, -0.27885016798973083, 0.0016520754434168339, 0.023436496034264565, -0.24734283983707428, 0.15367260575294495, 0.12540969252586365, -0.07989255338907242, 0.05234641209244728, -0.13806413114070892, -0.055213455110788345, -0.21147188544273376, 0.06424327939748764, -0.21996767818927765, -0.15955397486686707, -0.11463478952646255, 0.1434723138809204, -0.11439178138971329, -0.30529797077178955, -0.10783801227807999, 0.07295335829257965, -0.45142194628715515, 0.10343912988901138, 0.04387231916189194, 0.15331803262233734, 0.15235035121440887, 0.05138716101646423, 0.25111332535743713, -0.13822130858898163, 0.17932537198066711, 0.20313887298107147, -0.026162179186940193, -0.30296453833580017, 0.36539551615715027, -0.10528331995010376, -0.09524016827344894, -0.12422569841146469, 0.042342182248830795, 0.1575670689344406, -0.06658770889043808, -0.14650282263755798, -0.3956967890262604, 0.04630597308278084, 0.04883933812379837, -0.186409592628479, -0.06711369007825851, -0.09513551741838455, -0.25614285469055176, 0.08069411665201187, -0.22277016937732697, -0.2513618767261505, 0.02005361206829548, -0.06337525695562363, -0.13431032001972198, 0.13401895761489868, 0.07066003233194351, 0.3612271547317505, 0.05444832891225815, -0.3382328152656555, 0.11023662239313126, -0.024852750822901726, 0.02108393795788288, -0.07377423346042633, 0.05996369197964668, 0.014640362933278084, 0.12643946707248688, -0.23064455389976501, -0.2288547307252884, 0.07360463589429855, 0.22955694794654846, 0.01816783845424652, 0.13760480284690857, 0.08341526985168457, 0.1354074329137802, 0.0003514571872074157, 0.24915443360805511, 0.13226932287216187, -0.13741245865821838, 0.013481358997523785, 0.08446008712053299, 0.18375276029109955, -0.03585353121161461, -0.01956850104033947, -0.14579005539417267, 0.0923987552523613, 0.13803747296333313, 0.002311528427526355, -0.005730282980948687, 0.20591267943382263, -0.13088923692703247, -0.05532141774892807, 0.10276025533676147, -0.004732128698378801, 0.04570486396551132, 0.01763487048447132, -0.20693792402744293, 0.06987715512514114, -0.06056741997599602, 0.11300507932901382, 0.1949920803308487, 0.19617080688476562, -0.09285711497068405, -0.04607902839779854, -0.03280377388000488, -0.065583735704422, 0.10308035463094711, 0.013753777369856834, 0.06978248804807663, -0.00011587046174099669, -0.12343045324087143, -0.07739829272031784, -0.016715742647647858, 0.0997634157538414, 0.12063205242156982, -0.002495015971362591, -0.029789874330163002, -0.09532441943883896, 0.02691432274878025, 0.009360368363559246, -0.016870616003870964, 0.14972850680351257, -0.03296154737472534, 0.1390329897403717, 0.06214561685919762, 0.06005117669701576, -0.12918895483016968, -0.09890787303447723, 0.11571594327688217, -0.065941222012043, -0.1326597034931183, 0.04624195769429207, -0.020752999931573868, -0.11837350577116013, 0.11207758635282516, -0.16612011194229126, 0.10875304043292999, -0.06240806356072426, -0.17081975936889648, 0.12585337460041046, 0.03129948675632477, -0.050720252096652985, 0.10662802308797836, 0.08510002493858337, -0.07147671282291412, -0.01972927153110504, -0.15686479210853577, 0.014095013961195946, -0.1679133027791977, -0.11913105100393295, -0.01493949256837368, -0.0292937271296978, 0.08572933077812195, -0.06760883331298828, -0.07898455113172531, 0.01795121096074581, -0.1325375735759735, -0.15737569332122803, 0.018270079046487808, -0.02370806410908699, -0.0887434259057045, -0.07192303240299225, -0.025757694616913795, 0.015606725588440895, 0.004973636940121651, -0.044581007212400436, 0.08678591996431351, 0.07300673425197601, -0.022319361567497253, -0.11535291373729706, -0.03130202367901802, 0.1492651104927063, 0.1754962056875229, 0.1648446023464203, 0.13365031778812408, 0.022567301988601685, 0.16990536451339722, -0.14015164971351624, -0.1257236897945404, -0.1733030378818512, 0.04914337769150734, -0.03556150570511818, -0.017674721777439117, -0.09267726540565491, 0.06673648208379745, -0.0018213512375950813, -0.13629846274852753, 0.0010101423831656575, 0.020668011158704758, 0.038992270827293396, -0.04275708273053169, 0.2481672167778015, 0.10068647563457489, 0.1433221697807312, -0.2440727800130844, -0.38187772035598755, 0.028688272461295128, -0.0611332468688488, 0.07179711759090424, 0.1567750871181488, 0.04878930374979973, 0.04110044240951538, 0.08724305033683777, -0.019734829664230347, -0.14325392246246338, -0.23234884440898895, -0.19228987395763397, -0.1552107036113739, 0.00018146839283872396, 0.060582030564546585, -0.05038769170641899, 0.05055835098028183, -0.23938657343387604, -0.18233445286750793, -0.4467296302318573, 0.014259309507906437, -0.11672965437173843, 0.144486203789711, 0.18772941827774048, -0.0639123022556305, 0.27141958475112915, 0.09355010092258453, 0.040206823498010635, 0.16986407339572906, -0.16890589892864227, -0.1420336663722992, 0.16938461363315582, 0.001904078060761094, 0.062373362481594086, -0.1525096595287323, 0.04271775111556053, 0.3113275170326233, -0.2086368352174759, 0.05399542301893234, -0.17097648978233337, 0.05544580519199371, -0.034219760447740555, -0.026822339743375778, -0.11949572712182999, 0.08059953153133392, -0.27219003438949585, 0.23632413148880005, -0.15197500586509705, -0.0069975415244698524, -0.09714993089437485, -0.17060714960098267, -0.09529318660497665, 0.31779924035072327, 0.06254611909389496, 0.21044757962226868, -0.05087927728891373, -0.21348673105239868, 0.04213517904281616, 0.03057740069925785, 0.20038926601409912, 0.07662072032690048, -0.06687392294406891, -0.18283367156982422, -0.02469295635819435, 0.045258477330207825, -0.3064541816711426, 0.11833208054304123, 0.03467441722750664, 0.06251566857099533, 0.015580509789288044, 0.08362849056720734, 0.04231099411845207, 0.22680196166038513, 0.20939965546131134, 0.05051112174987793, 0.1577174961566925, 0.10199623554944992, 0.07218512892723083, -0.0987284928560257, 0.20462244749069214, 0.1119026243686676, 0.01356434728950262, -0.12336703389883041, 0.20912908017635345, -0.07151235640048981, -0.032761283218860626, 0.21810659766197205, 0.03455488756299019, 0.18120069801807404, 0.11097486317157745, -0.04411580041050911, 0.10301446914672852, -0.19323165714740753, -0.3008577227592468, 0.08141348510980606, -0.06596317142248154, 0.0763433426618576, 0.10228303074836731, -0.07031968235969543, 0.17776140570640564, -0.02439379319548607, 0.15466853976249695, 0.024473464116454124, 0.14428550004959106, 0.19080451130867004, 0.011386008001863956, -0.039145078510046005, 0.17672839760780334, -0.03787190467119217, -0.10831095278263092, 0.03305632248520851, 0.08526793867349625, -0.02494913898408413, 0.1504710167646408, -0.02139207534492016, 0.2051941305398941, -0.13856901228427887, 0.10357972234487534, -0.004905832931399345, -0.12640370428562164, -0.03278014808893204, 0.06966190040111542, -0.15638941526412964, 0.04909885302186012, -0.040373899042606354, 0.02368258871138096, 0.1185658797621727, -0.17312847077846527, -0.011315585114061832, -0.1328282207250595, -0.1093742772936821, -0.014575331471860409, -0.13290180265903473, -0.06788302958011627, -0.026079757139086723, 0.1332806944847107, 0.08636751025915146, 0.1229921355843544, 0.03302845358848572, -0.06844772398471832, 0.13291268050670624, -0.03137105703353882, -0.12284326553344727, 0.02450782246887684, 0.07874227315187454, 0.14155399799346924, -0.10630879551172256, -0.11232925206422806, -0.021194342523813248, 0.10147415101528168, 0.10892532765865326, 0.012387684546411037, -0.15862736105918884, 0.08275804668664932, 0.06640785932540894, 0.10980989784002304, -0.02438029833137989, 0.031226158142089844, -0.056924182921648026, -0.0011017180513590574, -0.09414853155612946, -0.0821458250284195, -0.028381818905472755, -0.00859606172889471, 0.008828339166939259, 0.003421808360144496, -0.040087178349494934, 0.10636000335216522, 0.10026905685663223, 0.03198055550456047, 0.07487979531288147, 0.002569519681856036, -0.06325580924749374, -0.01274100411683321, 0.009545741602778435, -0.024992337450385094, -0.005888938903808594, 0.15092924237251282, -0.14102435111999512, -0.10034483671188354, 0.10019955784082413, -0.05111481621861458, 0.08388542383909225, -0.10818210989236832, 0.019471220672130585, 0.07962416857481003, 0.12659171223640442, 0.18082186579704285, 0.028057513758540154, 0.016430413350462914, 0.08122190088033676, -0.04936269670724869, 0.2591552734375, -0.054157767444849014, -0.008290995843708515, 0.2318928837776184, -0.010264646261930466, 0.05106551572680473, 0.1467479020357132, -0.333372563123703, 0.1441013365983963, 0.20375679433345795, -0.06053900346159935, 0.1649087816476822, -0.024678044021129608, -0.004549584351480007, 0.48646280169487, 0.08395540714263916, 0.15799731016159058, -0.1332356035709381, -0.024162931367754936, -0.07645361125469208, 0.14299435913562775, -0.1625387966632843, 0.11558067053556442, 0.22407010197639465, -0.033985838294029236, 0.2523347735404968, -0.06830896437168121, 0.17496924102306366, 0.08641376346349716, 0.11252827942371368, -0.13738563656806946, 0.014336809515953064, 0.1161736473441124, -0.008068387396633625, 0.05960768088698387, 0.3507572114467621, 0.22256317734718323, 0.0014365188544616103, 0.11012405902147293, 0.03833065554499626, -0.00934890378266573, 0.1762939840555191, -0.07859256118535995, -0.1188238263130188, -0.2289794385433197, 0.19676591455936432, 0.14737768471240997, -0.04591221734881401, 0.13918986916542053, 0.1548764854669571, 0.04538978636264801, -0.03137694299221039, 0.15348969399929047, 0.03274000436067581, 0.323399156332016, -0.019343288615345955, -0.18891313672065735, 0.04655749723315239, 0.14704321324825287, 0.08835486322641373, 0.012615492567420006, 0.07841669023036957, -0.15544719994068146, 0.011818746104836464, -0.18930430710315704, -0.040282633155584335, 0.11923686414957047, 0.055062778294086456, 0.24206142127513885, 0.2581353783607483, -0.029931029304862022, -0.015948018059134483, 0.2267504185438156, 0.0298964474350214, 0.1705295890569687, 0.1371806114912033, 0.16601650416851044, 0.10368663817644119, -0.13646477460861206, -0.10013643652200699, -0.15031352639198303, 0.10856466740369797, 0.09077639132738113, -0.04204452782869339, -0.11363394558429718, -0.018561089411377907, 0.040983643382787704, 0.09252169728279114, -0.0047507514245808125, 0.16708055138587952, 0.20166626572608948, -0.15010395646095276, 0.06416039168834686, -0.256727397441864, -0.18405777215957642, 0.02218645066022873, -0.04806413874030113, -0.08782722055912018, -0.05101519450545311, 0.1941377818584442, -0.0788799598813057, 0.1425153911113739, 0.05207311362028122, 0.11326957494020462, 0.10134678333997726, 0.056150566786527634, -0.08747163414955139, -0.08721324801445007, -0.09591788798570633, 0.059306081384420395, 0.07878994941711426, 0.09659592807292938, 0.051490284502506256, 0.1352604478597641, -0.05282032489776611, 0.1779778003692627, -0.11738825589418411, 0.07697879523038864, 0.03067152388393879, 0.03763095289468765, 0.025921935215592384, 0.08686485141515732, 0.14111457765102386, -0.018830660730600357, 0.1087302565574646, -0.04606245458126068, -0.06313474476337433, 0.09490649402141571, 0.043852563947439194, -0.15133695304393768, 0.05549361929297447, 0.059157248586416245, 0.01908632181584835, -0.013965492136776447, -0.004165228456258774, -0.10220209509134293, 0.1049254909157753, -0.053555864840745926, -0.11967026442289352, -0.04811084643006325, 0.015608507208526134, 0.10539547353982925, 0.18749794363975525, -0.0009123995550908148, -0.11955657601356506, 0.13092181086540222, 0.000949722365476191, 0.2073221206665039, 0.055271849036216736, 0.11730220913887024, 0.10697007179260254, -0.13917554914951324, -0.041763558983802795, -0.01757154054939747, -0.14800624549388885, -0.11971047520637512, 0.020168974995613098, -0.04233396798372269, -0.012457696720957756, 0.06319615989923477, 0.089564748108387, 0.09172877669334412, 0.09599561989307404, -0.11737605184316635, -0.09748488664627075, -0.027260547503829002, -0.09339720755815506, -0.02511359006166458, -0.035311296582221985, -0.11040080338716507, -0.06378988921642303, -0.190758615732193, 0.01590219885110855, 0.10834856331348419, 0.12324847280979156, 0.011273971758782864, -0.04665599763393402, 0.16548296809196472, -0.07420258969068527, -0.13529546558856964, -0.14402490854263306, 0.04287295415997505, 0.05976269394159317, -0.14207352697849274, -0.0934690460562706, -0.4040476679801941, -0.2814413607120514, -0.06088187173008919, 0.0980447307229042, 0.09053733199834824, 0.0032855155877768993, -0.30217084288597107, -0.5525108575820923, -0.06725054979324341, -0.1049581915140152, -0.1409733146429062, 0.04641406238079071, -0.43810775876045227, 0.19068852066993713, 0.06717309355735779, -0.0506080724298954, -0.3362525999546051, 0.12295213341712952, 0.014001520350575447, -0.07479977607727051, -0.023726273328065872, -0.30691027641296387, 0.20035308599472046, -0.2794213593006134, -0.415341317653656, -0.13710080087184906, -0.5601376891136169, -0.14243756234645844, -0.02459319308400154, -0.19912204146385193, 0.1342153549194336, 0.08749911189079285, 0.3289806842803955, -0.2825690507888794, 0.20785045623779297, 0.2786968946456909, -0.2657299041748047, -0.13414518535137177, 0.37942683696746826, -0.42295175790786743, -0.07243181020021439, -0.3309125602245331, 0.13553200662136078, 0.029218630865216255, -0.09302986413240433, -0.10951239615678787, -0.36217087507247925, -0.16875006258487701, -0.13767215609550476, -0.18856120109558105, -0.117418073117733, 0.021578818559646606, -0.4258059561252594, 0.037874698638916016, -0.19919756054878235, -0.21748080849647522, -0.11306252330541611, -0.10054170340299606, 0.16821183264255524, 0.4090441167354584, -0.07516714930534363, 0.011902515776455402, 0.006449103355407715, -0.5023810863494873, -0.008410469628870487, -0.11342030018568039, 0.16586604714393616, 0.21044398844242096, 0.06500101834535599, -0.062275491654872894, 0.27712637186050415, 0.04240528494119644, -0.34973573684692383, -0.12216822057962418, 0.1713913381099701, -0.1515170931816101, -0.08564399927854538, -0.01383042149245739, 0.07621568441390991, -0.020086117088794708, 0.2974961996078491, 0.11558948457241058, -0.08081687986850739, -0.1614089459180832, 0.19373905658721924, 0.15590591728687286, 0.12094318866729736, 0.10299322009086609, -0.12833847105503082, -0.20327244699001312, -0.01088812854140997, 0.09957835078239441, -0.1217755377292633, 0.020746644586324692, 0.13641007244586945, 0.18861834704875946, 0.02679159678518772, 0.1518496870994568, -0.12450744956731796, -0.2466679811477661, -0.10131043940782547, -0.1477585881948471, -0.19233234226703644, 0.11324512213468552, 0.1460464596748352, 0.20742453634738922, 0.18696534633636475, 0.08300463110208511, 0.05279529467225075, 0.026731425896286964, 0.04942662641406059, 0.18047495186328888, 0.17702683806419373, 0.040745966136455536, -0.09105169028043747, 0.11327842622995377, 0.12748822569847107, -0.056283656507730484, 0.0795440822839737, 0.05070043355226517, 0.12928859889507294, -0.13966841995716095, 0.258158415555954, 0.11221544444561005, 0.1616416871547699, 0.020248133689165115, 0.1572299599647522, 0.028786925598978996, 0.12144623696804047, -0.17471081018447876, -0.06952110677957535, -0.014142312109470367, -0.1210223138332367, -0.02911125309765339, 0.08313338458538055, -0.05213228240609169, -0.1610361933708191, -0.14540202915668488, -0.0509461984038353, 0.008701852522790432, 0.09942026436328888, 0.048315711319446564, -0.10197008401155472, -0.1084432378411293, 0.12029137462377548, 0.0159317459911108, 0.08477498590946198, -0.013042790815234184, 0.12449558824300766, 0.010262949392199516, -0.15215647220611572, -0.11229100823402405, -0.034165993332862854, 0.03641991317272186, 0.00011642368190223351, -0.0682908445596695, -0.12615267932415009, -0.09406909346580505, 0.13854555785655975, -0.07537306100130081, 0.1436844915151596, 0.1319287270307541, -0.05227389559149742, -0.11821950227022171, -0.03386769816279411, -0.0017570394556969404, 0.03997482359409332, 0.17138001322746277, 0.14013870060443878, -0.14531423151493073, -0.09027009457349777, -0.09446201473474503, 0.08693140000104904, 0.13890674710273743, 0.05335400998592377, -0.1342487931251526, -0.1345737874507904, 0.1090654507279396, 0.08007089048624039, 0.07721855491399765, -0.005404928233474493, 0.04678088054060936, 0.0004206210724078119, 0.017376868054270744, 0.003817689372226596, -0.08951255679130554, 0.16614298522472382, -0.09755948185920715, 0.15721894800662994, -0.10437267273664474, -0.0518394373357296, 0.06970885396003723, -0.26973360776901245, -0.13998660445213318, -0.2468225210905075, 0.04793715849518776, 0.045178934931755066, -0.13161693513393402, 0.15883085131645203, 0.2186753898859024, -0.1736103892326355, -0.1181308701634407, -0.23659750819206238, -0.19619034230709076, -0.32649895548820496, -0.04330868273973465, 0.22255028784275055, -0.28369563817977905, -0.0732792466878891, 0.38240954279899597, -0.134354367852211, -0.21814291179180145, -0.060399871319532394, -0.16836772859096527, 0.08147711306810379, -0.3537280261516571, 0.12309703975915909, 0.22374898195266724, 0.0062849498353898525, -0.2502036392688751, 0.06200934946537018, -0.16836589574813843, -0.029267869889736176, 0.05325665697455406, -0.16772246360778809, -0.39074668288230896, -0.14632092416286469, -0.3591536283493042, -0.18002359569072723, 0.16991524398326874, -0.41829589009284973, -0.35571691393852234, -0.17391076683998108, 0.019566070288419724, 0.008334660902619362, -0.18787884712219238, -0.05146460607647896, -0.38109517097473145, 0.00813745055347681, -0.12209010869264603, 0.1362616866827011, -0.11180265992879868, -0.07402143627405167, 0.17629870772361755, 0.021312233060598373, -0.004493387416005135, -0.01434866338968277, -0.14338476955890656, 0.07216930389404297, -0.0899210050702095, -0.06640001386404037, -0.2788921296596527, -0.037426963448524475, -0.1876000016927719, 0.053324129432439804, -0.20460627973079681, 0.15253183245658875, 0.020823657512664795, 0.08580007404088974, 0.16317978501319885, 0.10701227188110352, 0.13101188838481903, 0.09847017377614975, -0.09640774875879288, -0.01592610403895378, 0.09768220782279968, 0.1728377491235733, 0.08386911451816559, -0.15577873587608337, -0.014044447802007198, 0.10792171210050583, -0.018836360424757004, 0.06517594307661057, -0.06880834698677063, -0.03792889416217804, 0.1798497885465622, -0.16933704912662506, -0.035806044936180115, 0.020586887374520302, 0.24704641103744507, 0.16509108245372772, 0.11434409767389297, -0.13122247159481049, -0.00030996411805972457, -0.08335106819868088, 0.10528235137462616, -0.05225035548210144, -0.058345142751932144, -0.12040568888187408, -0.048275187611579895, 0.08999643474817276, 0.22618718445301056, 0.2071380615234375, 0.14837993681430817, 0.05611236393451691, -0.0011846096022054553, 0.06881480664014816, -0.0820549875497818, -0.14585144817829132, 0.00820749532431364, 0.15846259891986847, -0.010829661972820759, 0.14343276619911194, 0.040972981601953506, -0.179831862449646, -0.21185213327407837, -0.011526369489729404, 0.04104360193014145, -0.0616021603345871, 0.18445947766304016, -0.01352201122790575, 0.27294349670410156, -0.014841252006590366, 0.08810155838727951, -0.09124168008565903, -0.03890267759561539, 0.1037243902683258, 0.02719285525381565, 0.031864698976278305, 0.10578221827745438, 0.005961420480161905, 0.013632676564157009, -0.08373189717531204, 0.18112753331661224, 0.03372888267040253, -0.14834560453891754, 0.09873292595148087, -0.011836652643978596, -0.17105509340763092, 0.13438475131988525, -0.12711147964000702, -0.10948310047388077, 0.15731389820575714, -0.07430563867092133, -0.08465852588415146, -0.11702173948287964, -0.007934336550533772, 0.13640724122524261, 0.18656912446022034, -0.021497100591659546, 0.014430168084800243, 0.09403213858604431, 0.100762277841568, -0.22927837073802948, 0.14131467044353485, 0.028315113857388496, 0.12797410786151886, 0.07379961013793945, -0.08533016592264175, 0.07441724836826324, -0.10612823814153671, 0.035591911524534225, 0.0009928045328706503, -0.05862884968519211, 0.0636126697063446, -0.1212879940867424, 0.12033809721469879, 0.08027036488056183, -0.08492162823677063, 0.08350400626659393, 0.07325347512960434, 0.22059360146522522, 0.1472514122724533, -0.1002766489982605, -0.1375616192817688, 0.04936276003718376, -0.06279540061950684, -0.15001003444194794, 0.06003465875983238, 0.05117254704236984, -0.07667228579521179, -0.09014462679624557, -0.004491023253649473, -0.05889177322387695, 0.11704041063785553, 0.04569225385785103, -0.11041188985109329, -0.14123626053333282, -0.07612618803977966, -0.08161937445402145, 0.12410532683134079, 0.09628848731517792, -0.02669990435242653, -0.2206580936908722, 0.08751087635755539, 0.157869353890419, 0.11498168110847473, -0.17014183104038239, 0.06413164734840393, -0.15701118111610413, -0.11814828217029572, 0.5076212882995605, 0.08123656362295151, 0.2455253154039383, 0.4344644844532013, 0.126048743724823, 0.15769299864768982, -0.1272977739572525, -0.319362610578537, 0.12896446883678436, 0.08675284683704376, 0.14365369081497192, 0.07128942757844925, -0.12799131870269775, 0.19334973394870758, 0.415583997964859, 0.01380413118749857, 0.02113416977226734, -0.08358331024646759, -0.031635116785764694, 0.32442787289619446, 0.2196822464466095, -0.09297849237918854, 0.12868152558803558, 0.03326980769634247, 0.16673046350479126, 0.22291603684425354, 0.057160116732120514, 0.11172951757907867, 0.02297985926270485, 0.08972054719924927, 0.022754300385713577, 0.22938576340675354, 0.01070741843432188, 0.04884157329797745, 0.35566815733909607, 0.11546341329813004, 0.24320483207702637, -0.10650893300771713, -0.06393104791641235, 0.2100309133529663, 0.0638945996761322, -0.04540156573057175, 0.06329171359539032, 0.19286467134952545, -0.09432032704353333, 0.2552605867385864, 0.26487794518470764, 0.16712377965450287, 0.12812639772891998, 0.09059903025627136, -0.20521903038024902, -0.22581040859222412, 0.07329297810792923, 0.15953309834003448, 0.5659369230270386, 0.08125539124011993, -0.04735453799366951, 0.04021763801574707, 0.00970093347132206, 0.23500116169452667, 0.05606239289045334, 0.029582412913441658, 0.08954659104347229, 0.007531378418207169, 0.1077033057808876, 0.030250417068600655, 0.08161371201276779, 0.05213867500424385, 0.2520328462123871, -0.03408395126461983, 0.036759618669748306, 0.1384465992450714, 0.03747435286641121, 0.17684049904346466, 0.14852026104927063, 0.0026490269228816032, 0.16525457799434662, 0.02262653224170208, 0.09807605296373367, 0.11386225372552872, -0.05931096151471138, 0.03745726868510246, -0.025594834238290787, -0.14000384509563446, -0.017466649413108826, -0.002103479579091072, 0.23518550395965576, 0.068899005651474, 0.29818692803382874, 0.0909852609038353, -0.052174050360918045, 0.056785307824611664, 0.06665358692407608, 0.1459169089794159, 0.0029797872994095087, -0.09246180206537247, 0.22891943156719208, 0.05241353064775467, -0.06952247768640518, 0.06649911403656006, -0.23559977114200592, 0.1835118681192398, 0.06380470097064972, -0.1436060518026352, 0.06389980018138885, 0.0025634663179516792, 0.11076270788908005, 0.005809355527162552, -0.03452238813042641, 0.15319660305976868, 0.014835385605692863, 0.023305537179112434, 0.014314346015453339, -0.0578075610101223, -0.04640524461865425, 0.21925559639930725, -0.02287178859114647, -0.11451838165521622, -0.038975149393081665, 0.10770750045776367, 0.05860719829797745, 0.07426119595766068, 0.04552818834781647, 0.07893949002027512, 0.08350234478712082, -0.07174893468618393, 0.05558379739522934, -0.005027784034609795, -0.061834268271923065, 0.11874189227819443, 0.20140615105628967, 0.11805859208106995, 0.13737595081329346, -0.11757302284240723, -0.09410307556390762, 0.02100151777267456, -0.10546516627073288, -0.021809756755828857, 0.04530506581068039, -0.09237845987081528, -0.15262754261493683, -0.03126288577914238, -0.0688767209649086, 0.035960983484983444, -0.15722665190696716, -0.027899734675884247, -0.008969268761575222, -0.03758956491947174, 0.09116028994321823, 0.06405942142009735, -0.04826224222779274, 0.022859029471874237, -0.004440606106072664, 0.08138580620288849, -0.11388538777828217, -0.09196783602237701, -0.17339332401752472, -0.046818070113658905, 0.0633157268166542, 0.017435045912861824, 0.006002205424010754, 0.021916596218943596, 0.17462158203125, 0.045530688017606735, 0.12804853916168213, -0.1271762251853943, 0.021027211099863052, -0.10593733191490173, -0.15725497901439667, -0.14028190076351166, 0.025551078841090202, 0.02124297060072422, -0.12031590938568115, 0.07527094334363937, -0.0383860245347023, 0.07158313691616058, -0.11613625288009644, 0.15301010012626648, 0.01692352630198002, -0.11353713274002075, 0.201956108212471, -0.07263005524873734, -0.052050404250621796, -0.1574159562587738, -0.2269425094127655, -0.09871266037225723, -0.11173228174448013, -0.15142570436000824, 0.13479840755462646, -0.0991244837641716, -0.019207753241062164, -0.019281433895230293, -0.21133233606815338, 0.08155835419893265, -0.14192186295986176, 0.1068587601184845, 0.09977149963378906, 0.1141284629702568, 0.1529083102941513, -0.04982661455869675, -0.028388941660523415, -0.26958394050598145, -0.12970930337905884, -0.034229300916194916, -0.1757616549730301, 0.05208507925271988, 0.01062737125903368, -0.016195297241210938, -0.03858063369989395, -0.37881699204444885, 0.04633167013525963, -0.5002638697624207, 0.01765250228345394, -0.18933717906475067, 0.006521496921777725, 0.14469513297080994, -0.1496514230966568, 0.17929482460021973, 0.1047234907746315, 0.047193169593811035, 0.38678470253944397, -0.1854204684495926, -0.37422624230384827, 0.21179208159446716, -0.09224694222211838, -0.021894490346312523, -0.24775269627571106, 0.24366362392902374, 0.2547850012779236, -0.2607437074184418, 0.23887978494167328, -0.1517951339483261, -0.11006691306829453, -0.19448061287403107, -0.035504382103681564, -0.2294115424156189, -0.21962249279022217, -0.3162364065647125, 0.011832932010293007, -0.013286927714943886, -0.2546479105949402, 0.07988764345645905, -0.018355077132582664, -0.050096482038497925, 0.21407344937324524, 0.10756490379571915, 0.10945513099431992, -0.08187811821699142, -0.39487332105636597, -0.0833248719573021, 0.04197091609239578, -0.06935951113700867, -0.03929658606648445, -0.07061144709587097, -0.00026398120098747313, 0.06815357506275177, -0.13304069638252258, -0.3356519937515259, -0.14434345066547394, 0.13647246360778809, 0.13130924105644226, -0.11240462958812714, 0.12645520269870758, -0.08391585946083069, -0.022678470239043236, 0.18447919189929962, -0.05541402846574783, 0.061238132417201996, -0.10734529793262482, 0.19878767430782318, 0.06832174211740494, 0.1550246626138687, 0.11578193306922913, -0.09326881170272827, 0.055922482162714005, -0.07606495916843414, -0.09682241827249527, 0.029349535703659058, 0.14613738656044006, -0.12005946040153503, 0.011452995240688324, -0.09565620124340057, 0.23669134080410004, -0.07587580382823944, -0.06385594606399536, -0.3509913980960846, -0.11255685240030289, -0.002278890460729599, -0.006256300024688244, 0.10054881125688553, -0.0017571799689903855, 0.08195348083972931, -0.0500296913087368, 0.22754105925559998, 0.05562541261315346, -0.042678240686655045, -0.008454998023808002, -0.06455279886722565, 0.17119359970092773, -0.08562658727169037, 0.17412754893302917, 0.15037046372890472, -0.1553361415863037, -0.08042223751544952, -0.15915867686271667, -0.015527141280472279, -0.016059191897511482, 0.20357879996299744, -0.08930458873510361, -0.07135625183582306, -0.11334004253149033, -0.14469464123249054, 0.011785203590989113, -0.0974474847316742, -0.104962058365345, 0.0863620787858963, -0.11529168486595154, -0.0612516924738884, 0.01254566852003336, -0.1243000403046608, 0.10307260602712631, -0.029628144577145576, -0.1622857004404068, 0.03155028074979782, 0.10375332087278366, 0.01176465954631567, 0.12320616841316223, -0.008493420667946339, 0.013116391375660896, 0.055761780589818954, -0.06949196010828018, 0.044608358293771744, 0.0942036435008049, 0.0982724130153656, -0.1002863347530365, 0.0008025314309634268, 0.05367854982614517, -0.0019931932911276817, -0.08691100776195526, -0.05618510767817497, 0.09833046793937683, -0.09075901657342911, -0.08124113827943802, -0.07087477296590805, -0.02738158591091633, -0.10704355686903, 0.07728592306375504, -0.070606529712677, 0.02211354300379753, -0.0016660181572660804, 0.14047300815582275, -0.03411583974957466, -0.12291092425584793, -0.08501780033111572, 0.038776855915784836, -0.03917904570698738, 0.140020951628685, -0.13232387602329254, -0.055122293531894684, -0.08157651126384735, -0.08639056235551834, -0.01977626420557499, -0.08133884519338608, 0.09311342239379883, -0.1205063983798027, -0.004584347363561392, -0.056020841002464294, -0.13395476341247559, -0.04521126672625542, -0.06349031627178192, -0.04328269883990288, 0.1383863240480423, -0.1509248912334442, -0.10709449648857117, -0.006121855229139328, -0.06953079253435135, 0.16007888317108154, -0.20904290676116943, -0.07126728445291519, -0.10203678160905838, 0.15019077062606812, -0.07707810401916504, -0.004516248125582933, -0.26155123114585876, -0.15818579494953156, 0.05046084523200989, -0.15431760251522064, 0.2108558565378189, 0.010470569133758545, -0.12615568935871124, 0.1991087943315506, -0.1459016054868698, 0.07139556854963303, -0.04657896235585213, -0.18887948989868164, -0.10885493457317352, -0.1448816955089569, -0.012686076574027538, 0.07720744609832764, 0.04463062435388565, 0.02110038697719574, -0.34708157181739807, 0.07484011352062225, -0.49004870653152466, -0.0742766335606575, 0.0326336994767189, 0.06498559564352036, 0.20945149660110474, -0.13386943936347961, 0.2418729066848755, -0.10376913100481033, 0.16791479289531708, 0.30048665404319763, -0.015634018927812576, -0.20785023272037506, 0.30637326836586, -0.21507412195205688, -0.0025367571506649256, -0.06186475232243538, -0.06945942342281342, 0.16529542207717896, 0.05996639281511307, 0.1373048573732376, -0.3665720820426941, 0.14195895195007324, 0.07929516583681107, -0.053251367062330246, -0.21010740101337433, -0.036962028592824936, -0.3298130929470062, 0.2288995236158371, -0.08295487612485886, 0.020204413682222366, -0.0916396751999855, 0.021149160340428352, 0.11925794929265976, 0.23003414273262024, 0.1277436465024948, 0.195845365524292, -0.20431840419769287, -0.19034244120121002, 0.1743040382862091, 0.04998646676540375, 0.07176359742879868, 0.22010409832000732, 0.040493838489055634, 0.045796509832143784, 0.0690775066614151, -0.19250737130641937, -0.15277540683746338, -0.008625484071671963, 0.20866192877292633, 0.014907946810126305, -0.028016824275255203, -0.10988776385784149, 0.06485610455274582, 0.1696593165397644, 0.23135264217853546, -0.1002284362912178, 0.07409162819385529, -0.054203372448682785, -0.0012640150962397456, 0.04541108012199402, 0.14516247808933258, -0.08545807749032974, -0.07240576297044754, -0.14446990191936493, 0.04972544312477112, -0.1019839197397232, -0.09726904332637787, 0.035525720566511154, 0.13585439324378967, 0.08969148993492126, 0.13443836569786072, 0.25322040915489197, -0.14964772760868073, -0.12044770270586014, -0.1764979362487793, 0.0976487323641777, -0.20882634818553925, -0.08745303750038147, -0.046971309930086136, 0.11129263788461685, 0.20838046073913574, -0.053006622940301895, 0.12134277820587158, -0.039758358150720596, 0.1388309746980667, 0.19777415692806244, 0.2095906287431717, 0.21635590493679047, -0.020378179848194122, -0.008507218211889267, 0.1750742495059967, 0.06543008238077164, -0.022855816408991814, -0.1322564035654068, 0.1957046538591385, -0.14596229791641235, -0.004913199692964554, -0.1344386488199234, 0.11946296691894531, -0.09166479110717773, 0.06921609491109848, 0.049530029296875, -0.055720601230859756, 0.0711250901222229, -0.06423213332891464, 0.12266527116298676, 0.009392320178449154, -0.05208800733089447, -0.03299308568239212, -0.06952471286058426, 0.09137548506259918, 0.1449253261089325, -0.10754505544900894, -0.13845105469226837, -0.11116263270378113, -0.04823301360011101, 0.1184084340929985, 0.13453663885593414, 0.009460319764912128, -0.11155315488576889, -0.03537997230887413, -0.019184065982699394, -0.0237001720815897, 0.008452211506664753, 0.10369355976581573, 0.01024704985320568, 0.05380222946405411, -0.05888427793979645, -0.1510409414768219, 0.07422558963298798, -0.09072059392929077, -0.08837658166885376, -0.12509185075759888, 0.1566547006368637, -0.004614902660250664, 0.14041520655155182, 0.0860111340880394, -0.06380458921194077, -0.05286215990781784, -0.1751079112291336, -0.12473955750465393, -0.1301565319299698, 0.05700264126062393, -0.15326127409934998, -0.08255404233932495, 0.05599266663193703, -0.1506001055240631, -0.05447003245353699, 0.10080261528491974, -0.06822030246257782, 0.05940930172801018, -0.08003281056880951, -0.034101925790309906, -0.08157994598150253, 0.026887331157922745, -0.0636545941233635, -0.107936330139637, 0.042100690305233, -0.11416234821081161, 0.10939386487007141, -0.02252066507935524, 0.08443938195705414, 0.04356490820646286, -0.1451069712638855, 0.10347890853881836, 0.0235064048320055, 0.30762025713920593, 0.3172999620437622, 0.46028053760528564, -0.1456853598356247, -0.19360655546188354, 0.08447438478469849, -0.1547674834728241, 0.2939213514328003, 0.22330133616924286, 0.28062567114830017, 0.34598472714424133, -0.13416452705860138, 0.33681222796440125, -0.11663402616977692, -0.2648814618587494, 0.08496438711881638, 0.20030537247657776, 0.07331401109695435, 0.23344144225120544, -0.1321139633655548, 0.2055063098669052, 0.25196754932403564, -0.12263339757919312, 0.22138799726963043, 0.3369121849536896, 0.17683207988739014, 0.3162391185760498, 0.49402734637260437, -0.11447983235120773, 0.2755652666091919, 0.06091223284602165, -0.006083284039050341, -0.34358280897140503, 0.2373397946357727, 0.010485994629561901, -0.13958372175693512, 0.11857185512781143, -0.19098782539367676, -0.40587931871414185, 0.2463773638010025, 0.09978348761796951, 0.35830026865005493, 0.18428410589694977, -0.08024432510137558, 0.03537406772375107, 0.33159148693084717, 0.42769795656204224, 0.050666794180870056, 0.3285400867462158, 0.0185297392308712, 0.13400080800056458, -0.09518963098526001, 0.42237338423728943, -0.15632738173007965, 0.25190579891204834, 0.20172621309757233, -0.05718865990638733, -0.0022886015940457582, 0.15750324726104736, 0.09591642767190933, -0.2227451503276825, -0.027634114027023315, -0.016652759164571762, 0.1969153732061386, 0.07152791321277618, 0.019458046182990074, -0.048866450786590576, -0.035281408578157425, 0.2551668882369995, 0.039757613092660904, -0.21398596465587616, 0.26606065034866333, 0.05636071041226387, -0.07321200519800186, -0.14488887786865234, -0.07637064158916473, 0.4316931962966919, -0.08074776083230972, 0.06312059611082077, -0.22568252682685852, -0.13419100642204285, -0.0070763835683465, 0.023882847279310226, 0.037327125668525696, 0.051574792712926865, 0.0384233258664608, -0.1671147346496582, -0.2956092357635498, 0.06657405942678452, 0.15743467211723328, 0.04386119171977043, -0.05444270744919777, 0.18076211214065552, -0.06271260231733322, -0.026590874418616295, -0.21770599484443665, 0.07187868654727936, 0.0037796911783516407, -0.03383540362119675, 0.1326112151145935, -0.0877356231212616, -0.11500222235918045, 0.004245404154062271, -0.25136950612068176, -0.1550443321466446, -0.19521555304527283, -0.20221400260925293, -0.07807519286870956, -0.20683421194553375, -0.04251643270254135, 0.02540159597992897, -0.15036562085151672, 0.13885797560214996, -0.13220681250095367, -0.0703192800283432, -0.1569429337978363, -0.023915814235806465, 0.12515601515769958, -0.07452961802482605, -0.0583554282784462, -0.18176580965518951, -0.1649833619594574, 0.07940761744976044, -0.27236250042915344, -0.20008739829063416, 0.12342914938926697, -0.009629269130527973, -0.06842190027236938, -0.016306020319461823, 0.05623911693692207, -0.06975522637367249, -0.04165278747677803, -0.11945780366659164, 0.06064227968454361, -0.16785667836666107, 0.04668533056974411, 0.15032778680324554, 0.034010447561740875, 0.005280524957925081, -0.09884248673915863, 0.17215797305107117, -0.17485031485557556, 0.061953190714120865, 0.08105646818876266, 0.12472499161958694, 0.0009071669774129987, 0.020299065858125687, -0.014187447726726532, 0.11364461481571198, 0.15953996777534485, 0.00896774884313345, -0.13916528224945068, -0.09960121661424637, 0.13939128816127777, -0.031206350773572922, 0.1867981106042862, -0.12019864469766617, -0.13847875595092773, 0.08432995527982712, -0.19809116423130035, 0.09624508768320084, 0.1974978744983673, 0.18426571786403656, -0.10757148265838623, -0.1291942149400711, -0.05884980782866478, 0.13145795464515686, 0.019643347710371017, -0.16138646006584167, 0.107548788189888, -0.17601120471954346, 0.033189330250024796, 0.15821674466133118, -0.0870940238237381, -0.13170292973518372, 0.05920303985476494, 0.07599610835313797, 0.0065784878097474575, -0.052298545837402344, -0.10184119641780853, 0.10446372628211975, 0.10468583554029465, 0.029191767796874046, -0.1722315400838852, 0.1377296894788742, -0.196531742811203, -0.009956732392311096, 0.0429697260260582, -0.05116009712219238, 0.045699141919612885, 0.08688856661319733, -0.044969018548727036, -0.42057302594184875, -0.20491179823875427, -0.23671631515026093, 0.015731720253825188, -0.011042855679988861, -0.06266843527555466, 0.010944625362753868, -0.0831170305609703, -0.1800219863653183, -0.4141353964805603, -0.24161936342716217, -0.16955336928367615, -0.27228233218193054, 0.057806484401226044, 0.2840312719345093, -0.26941046118736267, -0.017659300938248634, 0.29253020882606506, -0.24423032999038696, -0.17417046427726746, -0.420980840921402, -0.2348433881998062, -0.06253403425216675, -0.3054046928882599, 0.1756211519241333, 0.08988437056541443, 0.060796983540058136, -0.37865549325942993, 0.0437445342540741, -0.36807724833488464, 0.13382108509540558, -0.23283754289150238, -0.42306238412857056, -0.15341395139694214, -0.07488835602998734, -0.10597613453865051, -0.28644177317619324, -0.03465906158089638, -0.3372487723827362, -0.38102370500564575, -0.3170510530471802, -0.30730003118515015, -0.1008334830403328, -0.23232635855674744, -0.2916128635406494, -0.20091478526592255, -0.24476438760757446, -0.14027363061904907, 0.0024138151202350855, 0.001634874613955617, 0.09675504267215729, 0.278949111700058, -0.18961426615715027, 0.11678356677293777, -0.23119907081127167, -0.4589942991733551, -0.02743288315832615, -0.041909459978342056, -0.1604393869638443, -0.19206684827804565, -0.14850634336471558, -0.21885883808135986, 0.22625240683555603, -0.3090893626213074, -0.13010622560977936, -0.06220130994915962, 0.15811432898044586, 0.14364399015903473, 0.03523208573460579, 0.09917304664850235, -0.06850294768810272, -0.1616416573524475, 0.2592628598213196, 0.07690715789794922, -0.006757656577974558, 0.027839146554470062, 0.0017947906162589788, -0.017665687948465347, 0.07979074865579605, -0.11609747260808945, 0.05818084254860878, -0.1364138275384903, -0.0003682621172629297, 0.006288774311542511, -0.12837670743465424, 0.05843633785843849, -0.008586792275309563, 0.1474124938249588, -0.15230756998062134, -0.03995385020971298, 0.0031700870022177696, 0.2353687733411789, 0.06329095363616943, 0.11916502565145493, -0.036790043115615845, -0.01938808523118496, 0.013464401476085186, 0.06816959381103516, 0.1591760367155075, 0.12395129352807999, 0.15133124589920044, 0.04484954848885536, 0.21069586277008057, 0.23056624829769135, -0.10395041853189468, 0.03543289378285408, -0.0349021777510643, 0.08160585910081863, -0.10985837131738663, -0.012161742895841599, 0.07477997988462448, 0.16810952126979828, -0.1427271068096161, -0.09373816847801208, 0.14838100969791412, 0.00825328379869461, 0.12079212069511414, -0.027836134657263756, 0.01588202826678753, 0.13233453035354614, 0.0874580591917038, 0.1936524510383606, -0.10871342569589615, 0.09055274724960327, -0.025931116193532944, -0.13176076114177704, 0.10958351194858551, 0.06418834626674652, -0.1920861005783081, 0.046624310314655304, -0.13107219338417053, 0.170933797955513, 0.022953668609261513, 0.12394910305738449, 0.07332149893045425, 0.12337423861026764, 0.16274972259998322, 0.10040831565856934, -0.1513470560312271, -0.09849268198013306, -0.09170187264680862, 0.12278568744659424, 0.14963313937187195, 0.006395034957677126, -0.12080149352550507, 0.010584285482764244, -0.06024498865008354, -0.020580006763339043, -0.1653505265712738, 0.038519613444805145, 0.037404488772153854, -0.07772532105445862, 0.01803571730852127, 0.0696636512875557, 0.24842914938926697, 0.18733881413936615, -0.11251592636108398, 0.11069023609161377, -0.17455467581748962, 0.16472822427749634, -0.04246020317077637, 0.10220720618963242, -0.07463999837636948, 0.0654243752360344, 0.011893210001289845, -0.07481598109006882, 0.1084967628121376, 0.03374231606721878, 0.011481136083602905, 0.07285690307617188, 0.07221720367670059, -0.05978354811668396, -7.3291698754474055e-06, 0.07718463987112045, -0.225936621427536, -0.10154435783624649, 0.048961441963911057, 0.1258096992969513, -0.006191921420395374, -0.08651500195264816, -0.036865003407001495, 0.1128854751586914, 0.15597416460514069, 0.14505791664123535, 0.10784547030925751, 0.10284500569105148, 0.1716582030057907, 0.06737439334392548, -0.04842017963528633, 0.14185689389705658, 0.0025073280557990074, -0.18697719275951385, -0.03388208523392677, -0.1701606810092926, -0.025616230443120003, -0.22782909870147705, 0.023621516302227974, -0.25900357961654663, 0.035639069974422455, 0.1448247879743576, -0.05784366652369499, -0.14044736325740814, -0.21575358510017395, 0.06553571671247482, -0.10959974676370621, 0.04292099550366402, -0.0009849504567682743, -0.0034962049685418606, 0.18174132704734802, 0.18815849721431732, 0.13272419571876526, 0.038305092602968216, -0.11942361295223236, -0.1455061137676239, 0.05684510990977287, -0.08886612951755524, 0.41476544737815857, 0.15190845727920532, 0.3781944811344147, -0.11262424290180206, -0.06521778553724289, -0.19403964281082153, -0.02526378072798252, -0.12297675758600235, -0.3252188563346863, -0.09269420057535172, -0.24044343829154968, -0.18900907039642334, -0.1083383709192276, 0.11627837270498276, -0.4273720383644104, -0.006515759043395519, -0.007404933217912912, -0.014846829697489738, -0.08627093583345413, -0.1920946091413498, 0.11424807459115982, -0.10097605735063553, 0.22075091302394867, -0.11631325632333755, -0.038319751620292664, -0.015126505866646767, -0.060502536594867706, 0.2026185244321823, 0.18356403708457947, 0.01720248907804489, -0.09995235502719879, 0.04261070117354393, 0.20130637288093567, -0.023472005501389503, -0.2373521476984024, -0.4793449938297272, -0.01278412900865078, -0.38044318556785583, 0.0915641337633133, 0.006192561239004135, -0.15007124841213226, 0.04454173147678375, -0.07588335871696472, 0.0813082680106163, -0.09735269844532013, 0.0027897697873413563, -0.092192642390728, 0.07627594470977783, 0.13546599447727203, -0.07039963454008102, -0.20278161764144897, 0.12541383504867554, -0.13911575078964233, 0.06772871315479279, 0.148185595870018, 0.03473634645342827, 0.01241096667945385, -0.03369836509227753, -0.009068865329027176, -0.04713036119937897, -0.20952852070331573, 0.019786350429058075, -0.05582762137055397, -0.006618512328714132, -0.14057758450508118, 0.19093066453933716, -0.22118039429187775, -0.01062105968594551, -0.17508147656917572, 0.11438193917274475, 0.12963055074214935, -0.16732168197631836, -0.07841306924819946, -0.10003890097141266, 0.013273322954773903, 0.11146585643291473, 0.04695775732398033, 0.10885538160800934, 0.10452476888895035, -0.05003487318754196, -0.14422312378883362, -0.006247563753277063, -0.07675463706254959, 0.02789168246090412, -0.10841919481754303, 0.18035800755023956, 0.000743007636629045, -0.009045621380209923, -0.10596869140863419, -0.2274371236562729, 0.0676499754190445, 0.0878988727927208, -0.18710269033908844, 0.004619292914867401, -0.1957380771636963, 0.0700320452451706, -0.0898868590593338, 0.034887488931417465, 0.05690056085586548, 0.027674829587340355, -0.1714419722557068, -0.10681614279747009, -0.09601832181215286, -0.10252294689416885, -0.02048368752002716, -0.13724477589130402, 0.11328107118606567, -0.1209094375371933, 0.20741750299930573, 0.1138191893696785, 0.1304006725549698, 0.1884450763463974, -0.04465319961309433, -0.021780168637633324, -0.15200231969356537, -0.09423471987247467, 0.13324598968029022, -0.06456199288368225, 0.07817903161048889, -0.0535886287689209, 0.015463084913790226, -0.18408885598182678, -0.059372007846832275, 0.05410606786608696, 0.12312000244855881, 0.02675267867743969, -0.006912220735102892, 0.13911671936511993, 0.127454474568367, -0.008056817576289177, 0.0594828724861145, -0.1177903264760971, 0.022556506097316742, -0.15381278097629547, 0.08438993245363235, 0.01141523476690054, -0.14227738976478577, 0.018004221841692924, 0.11534685641527176, 0.0039301468059420586, -0.0009590419940650463, -0.02478001080453396, -0.07887860387563705, 0.07532534003257751, -0.10214177519083023, 0.10862806439399719, -0.05801955237984657, -0.017723027616739273, 0.006932291202247143, 0.1390531361103058, -0.16428329050540924, -0.049947842955589294, 0.049509499222040176, 0.017754916101694107, -0.16943684220314026, 0.0005184243200346828, -0.014719401486217976, -0.08713897317647934, 0.07294068485498428, 0.059579506516456604, 0.011497610248625278, -0.10681408643722534, 0.060602862387895584, -0.08921299129724503, -0.11907278746366501, 0.08787048608064651, 0.11942438036203384, -0.030092524364590645, -0.5564307570457458, -0.291332870721817, -0.44971081614494324, -0.10575282573699951, -0.26836270093917847, -0.4598657488822937, 0.06121831759810448, -0.12013719230890274, -0.515418291091919, -0.2871694564819336, -0.6995797157287598, -0.12823215126991272, -0.31891775131225586, 0.08875388652086258, 0.353161096572876, -0.29583117365837097, -0.11360282450914383, 0.2827386260032654, -0.32857200503349304, -0.401066392660141, -0.6431564688682556, -0.4399145245552063, 0.06569130718708038, -0.28807467222213745, 0.01700550504028797, 0.005876187700778246, -0.21143171191215515, -0.6277927756309509, 0.11885121464729309, -0.6580840349197388, 0.18081027269363403, -0.02906021848320961, -0.4198182225227356, -0.5218144059181213, 0.052239399403333664, -0.32019078731536865, -0.5257336497306824, -0.025859566405415535, -0.20543202757835388, -0.40136173367500305, -0.5116497874259949, -0.302097886800766, -0.16118304431438446, -0.1916978359222412, -0.2874455153942108, -0.29755884408950806, -0.12211187928915024, -0.20775902271270752, -0.011867757886648178, -0.29606887698173523, -0.2864566445350647, 0.15933741629123688, -0.2513316571712494, 0.010304699651896954, -0.20176351070404053, -0.38523051142692566, 0.02017463929951191, -0.2056075483560562, -0.18523944914340973, -0.23145554959774017, 0.09987769275903702, -0.21484775841236115, 0.24716068804264069, -0.4459591209888458, -0.09027519822120667, 0.113591767847538, 0.019701870158314705, 0.033702459186315536, -0.14168260991573334, 0.12560667097568512, 0.09008967876434326, -0.12800642848014832, -0.03630261868238449, 0.10518672317266464, 0.04470432922244072, 0.17928580939769745, -0.1990133821964264, -0.01374130230396986, 0.0804465040564537, 0.17818397283554077, -0.05891326814889908, 0.006759905721992254, -0.10805059224367142, 0.23088352382183075, 0.09711436182260513, 0.051069848239421844, 0.12767904996871948, 0.11199522018432617, 0.15881919860839844, 0.1256304532289505, -0.04763849079608917, 0.003399138106033206, -0.0583687350153923, 0.16275380551815033, 0.1993131935596466, -0.09083392471075058, -0.0659390240907669, 0.029619503766298294, 0.003936936147511005, -0.013433811254799366, 0.16233095526695251, 0.02255380153656006, 0.20038992166519165, -0.03373319283127785, 0.3094329237937927, 0.07587218284606934, 0.14982764422893524, 0.11857061088085175, -0.008426846005022526, 0.00015900399012025446, 0.18725314736366272, -0.013456186279654503, -0.09952352941036224, -0.14048494398593903, 0.23011840879917145, 0.21416768431663513, -0.032388973981142044, -0.02354421839118004, -0.0055663748644292355, 0.2179439663887024, 0.15180328488349915, 0.10279670357704163, 0.10162880271673203, 0.03371047228574753, -0.010884631425142288, -0.042313456535339355, 0.08106860518455505, 0.03659920394420624, -0.2393658608198166, 0.20170630514621735, 0.03295166790485382, 0.15357811748981476, -0.07257790118455887, 0.0774763897061348, 0.15760476887226105, 0.034745775163173676, -0.22135165333747864, -0.00038822198985144496, -0.023569157347083092, 0.11711882054805756, 0.21355247497558594, 0.05330813676118851, 0.11424262076616287, -0.12722420692443848, 0.07411852478981018, 0.15661904215812683, -0.028210662305355072, 0.03729793056845665, -0.15697218477725983, 0.0935482308268547, 0.160000741481781, -0.1876547783613205, -0.053684052079916, 0.08437574654817581, 0.138205885887146, -0.011547069065272808, 0.05702304095029831, 0.14411897957324982, -0.02429807186126709, -0.04589266702532768, 0.10646000504493713, 0.10155677050352097, 0.053366824984550476, -0.07671839743852615, 0.12378804385662079, 0.0892457365989685, -0.19125236570835114, 0.2612307667732239, 0.2235340178012848, 0.2352224737405777, -0.09609419107437134, -0.021727338433265686, -0.025519799441099167, -0.06065862253308296, -0.23217085003852844, -0.16080425679683685, 0.07993806898593903, 0.1351253241300583, -0.02169972099363804, -0.15836642682552338, -0.05807593837380409, -0.04007117077708244, 0.23331724107265472, 0.04417712613940239, -0.02999068610370159, -0.15146221220493317, -0.025038406252861023, -0.0012224551755934954, 0.010622515343129635, -0.029946517199277878, -0.1181446760892868, -0.08937252312898636, 0.158197283744812, 0.13082383573055267, 0.12860321998596191, -0.17571263015270233, 0.11280187219381332, -0.12102974206209183, 0.007694335654377937, -0.14858326315879822, 0.13331744074821472, 0.20294225215911865, 0.13096213340759277, -0.01698450557887554, 0.45589300990104675, 0.10017339140176773, 0.04070683941245079, 0.22808986902236938, 0.10313607007265091, 0.10370593518018723, 0.1941472738981247, 0.1168251559138298, 0.018541540950536728, 0.20710831880569458, -0.007725950796157122, 0.4777853786945343, 0.15599937736988068, -0.10117882490158081, 0.17076164484024048, 0.324215829372406, -0.017645196989178658, -0.021888500079512596, -0.035231634974479675, 0.07094427198171616, -0.359100341796875, 0.2716234028339386, -0.14145801961421967, -0.2503139078617096, 0.08875925093889236, -0.03075113706290722, -0.3012392818927765, 0.4011998474597931, 0.3502686321735382, 0.1323217749595642, -0.10312405228614807, -0.14071537554264069, 0.11133890599012375, 0.14654390513896942, 0.33698078989982605, -0.07340218871831894, 0.22420132160186768, -0.08324268460273743, 0.28671565651893616, -0.15836234390735626, 0.4192171096801758, -0.08275862783193588, 0.37044015526771545, 0.13280345499515533, 0.11992295831441879, 0.17784453928470612, -0.04617905244231224, -0.13204655051231384, -0.1138249859213829, -0.1098577156662941, -0.03639068454504013, 0.39826756715774536, 0.056704554706811905, 0.11264213174581528, -0.1421327441930771, -0.14987708628177643, 0.09355547279119492, 0.11231931298971176, -0.17309939861297607, 0.08710050582885742, 0.28436583280563354, 0.11529113352298737, -0.23575201630592346, -0.02708502486348152, 0.10515685379505157, -0.08950450271368027, -0.05093911290168762, -0.21796399354934692, -0.08939498662948608, -0.09347745031118393, -0.013737952336668968, -0.006904772482812405, -0.1875230371952057, -0.08434219658374786, -0.21109074354171753, -0.09735943377017975, 0.07829941064119339, -0.004502015188336372, 0.06677432358264923, 0.0419839471578598, 0.09460489451885223, -0.038742613047361374, -0.05370086431503296, -0.103316530585289, -0.1542414277791977, -0.2769622504711151, 0.024703186005353928, 0.10591376572847366, 0.03781544789671898, -0.15038034319877625, 0.0987032875418663, -0.20910045504570007, -0.030218051746487617, 0.044806454330682755, -0.19619950652122498, 0.03496181592345238, -0.08081094920635223, -0.042004477232694626, 0.03833244368433952, -0.012939078733325005, 0.10108263045549393, -0.03201477602124214, -0.118244469165802, -0.13285386562347412, -0.07007160782814026, -0.12111923098564148, -0.19171559810638428, -0.005176024977117777, -0.2302747219800949, -0.06119098141789436, -0.11577147245407104, 0.012676963582634926, -0.1586308777332306, 0.1000450998544693, 0.05185019224882126, -0.14834962785243988, 0.13808920979499817, 0.1705777943134308, 0.07814586907625198, 0.09887270629405975, -0.05683817341923714, -0.051109302788972855, 0.20091144740581512, -0.07486569136381149, 0.12776343524456024, 0.15444520115852356, -0.007740539498627186, -0.14725467562675476, -0.027462972328066826, -0.14394895732402802, -0.04608426243066788, -0.1441899985074997, 0.09347507357597351, 0.013061306439340115, 0.08453071117401123, 0.05583789199590683, -0.0529882051050663, -0.030642367899417877, -0.04348766431212425, 0.13442951440811157, 0.0548112727701664, 0.0552833192050457, -0.07350080460309982, 0.14585766196250916, 0.14131517708301544, -0.17584499716758728, -0.019756073132157326, 0.14026744663715363, -0.061328016221523285, 0.0012064974289387465, 0.16513872146606445, -0.19078180193901062, -0.16158992052078247, 0.11585396528244019, 0.13908107578754425, 0.05197889357805252, -0.1678793579339981, -0.01440870575606823, -0.15919260680675507, 0.09388077259063721, 0.11930646747350693, 0.11662402749061584, -0.1109384223818779, -0.03812948986887932, -0.13482573628425598, 0.050295665860176086, -0.14539200067520142, -0.0953395664691925, 0.05306614935398102, 0.1479327231645584, -0.05958999693393707, -0.09630487114191055, 0.20975328981876373, 0.008552595041692257, -0.052809938788414, 0.121958889067173, 0.03427238017320633, -0.05162430927157402, 0.16306613385677338, -0.09353093802928925, -0.37392428517341614, -0.4324747920036316, -0.31133031845092773, 0.2350349724292755, -0.11694075167179108, -0.15141665935516357, -0.23132872581481934, -0.3405216932296753, 0.007511855103075504, -0.18763074278831482, -0.13604237139225006, -0.07465618848800659, -0.4634283483028412, -0.08075522631406784, 0.06830321997404099, -0.1621379852294922, -0.16625195741653442, 0.030911093577742577, -0.26955077052116394, -0.30660706758499146, -0.4686209261417389, -0.1690511405467987, 0.010714845731854439, -0.37509244680404663, -0.08342157304286957, 0.2662016749382019, -0.571410596370697, -0.4998471736907959, 0.10803598165512085, -0.3181838095188141, 0.0009083710610866547, -0.002441379241645336, 0.30378803610801697, -0.4131661057472229, 0.07338287681341171, -0.06610459089279175, -0.11404509097337723, -0.12238654494285583, 0.1775328367948532, -0.5423386096954346, -0.29933276772499084, -0.427779883146286, -0.1989593654870987, 0.19927901029586792, -0.4013877809047699, -0.1926945447921753, -0.39795610308647156, -0.3421463072299957, -0.32731691002845764, -0.278428316116333, -0.10291512310504913, 0.21415500342845917, -0.6078847050666809, 0.22014334797859192, -0.5537297129631042, -0.25194674730300903, 0.040056876838207245, -0.37562716007232666, 0.07309693098068237, 0.2556624710559845, -0.057709574699401855, 0.2382194548845291, -0.18696577847003937, -0.34325650334358215, -0.0594390407204628, -0.13811127841472626, -0.06130373105406761, 0.22127793729305267, -0.052971888333559036, -0.02638288401067257, 0.08977700769901276, -0.049489185214042664, -0.20219910144805908, 0.03832557424902916, 0.21560636162757874, -0.08129562437534332, -0.035197678953409195, 0.05855599418282509, 0.15454480051994324, 0.28251761198043823, 0.29140567779541016, 0.17217358946800232, 0.11917803436517715, -0.09624399244785309, 0.03825954347848892, 0.17952316999435425, -0.006620354950428009, 0.13717760145664215, 0.07009179145097733, 0.0005950251943431795, 0.17606928944587708, 0.0702357217669487, 0.1657150536775589, 0.14582088589668274, 0.06512001901865005, 0.13829375803470612, -0.03134176880121231, 0.3136533200740814, 0.01853899657726288, -0.16780540347099304, -0.033444251865148544, 0.019483383744955063, 0.015984687954187393, 0.08949226886034012, -0.04625307396054268, 0.19607917964458466, 0.04329340159893036, 0.13525334000587463, 0.07373080402612686, -0.09920066595077515, 0.029287807643413544, 0.07904603332281113, 0.07116542011499405, 0.01275797188282013, -0.05695152282714844, -0.03314502537250519, 0.18098051846027374, 0.18762433528900146, -0.03599286451935768, -0.161004900932312, 0.16103968024253845, 0.07170569896697998, 0.15839415788650513, -0.03931274265050888, -0.04845362529158592, -0.10366597771644592, 0.10235445946455002, 0.062492452561855316, -0.05205772817134857, 0.08434692770242691, -0.01578729785978794, 0.08440405875444412, -0.0677858293056488, -0.03913365676999092, -0.10082828253507614, 0.1586671769618988, 0.03714180365204811, 0.21884317696094513, -0.10244513303041458, 0.10662912577390671, 0.1896142065525055, -0.018289826810359955, -0.035758912563323975, -0.02593822218477726, 0.06052303686738014, 0.19743886590003967, 0.06605243682861328, 0.12322287261486053, -0.07682787626981735, 0.10959667712450027, 0.03251282125711441, 0.12495794147253036, 0.049109555780887604, 0.09398268163204193, -0.03399474918842316, 0.08850311487913132, 0.09775684028863907, -0.1697232723236084, 0.1487312912940979, -0.1956547349691391, 0.05203027278184891, -0.03409886732697487, 0.03469866141676903, -0.201924666762352, -0.010263639502227306, 0.07868395745754242, 0.008610870689153671, -0.18945983052253723, -0.18025405704975128, 0.10453317314386368, -0.18843549489974976, -0.07135938853025436, -0.11714543402194977, 0.037670932710170746, 0.1772344410419464, -0.005522557999938726, -0.08861018717288971, 0.0020116420928388834, -0.08438325673341751, 0.18314093351364136, -0.06157057732343674, 0.01514368411153555, -0.12340718507766724, -0.12696926295757294, 0.030453864485025406, 0.07070910930633545, -0.17252129316329956, -0.14223851263523102, 0.1014828085899353, 0.11858286708593369, -0.005455994978547096, 0.14073002338409424, -0.07580897957086563, -0.1119200587272644, -0.09940826892852783, 0.0776723101735115, -0.1697148084640503, -0.027895277366042137, -0.22276657819747925, -0.7139046788215637, -0.19181163609027863, -0.22244645655155182, -0.17742866277694702, -0.11492086201906204, -0.26210537552833557, -0.057747066020965576, -0.09570775181055069, -0.10337194800376892, -0.30659833550453186, -0.07660993188619614, -0.060826923698186874, -0.21625810861587524, -0.060903459787368774, -0.25142335891723633, 0.22586818039417267, -0.07531000673770905, -0.2476900964975357, 0.060329969972372055, -0.4044175446033478, -0.037596993148326874, -0.012435643002390862, -0.21614737808704376, 0.1616840660572052, -0.15293318033218384, 0.12732160091400146, 0.04697634279727936, 0.06075200438499451, 0.17388573288917542, -0.16506439447402954, -0.2658732831478119, 0.17335081100463867, -0.13705524802207947, -0.10877426713705063, -0.46010535955429077, 0.009289681911468506, -0.1178622618317604, -0.31873181462287903, 0.16450491547584534, -0.40328606963157654, -0.019347909837961197, -0.30224087834358215, -0.17402899265289307, -0.31818488240242004, 0.05302400141954422, -0.26329168677330017, 0.09681571274995804, -0.35111337900161743, -0.15901802480220795, -0.15242598950862885, -0.21120749413967133, -0.04681401327252388, 0.43672502040863037, -0.02647831290960312, -0.17588813602924347, 0.05780717357993126, -0.3175272047519684, 0.09964468330144882, -0.0648375079035759, -0.04819294437766075, 0.04565814509987831, -0.23403532803058624, 0.014232203364372253, 0.11195635795593262, -0.05651845782995224, -0.1547025889158249, 0.092514269053936, 0.125031977891922, 0.08269596099853516, -0.06610850244760513, 0.17523552477359772, -0.18345797061920166, 0.014805606566369534, 0.13255199790000916, -0.022300181910395622, 0.06750277429819107, -0.09267913550138474, 0.04846327751874924, -0.11608371883630753, 0.09349673986434937, 0.10505902767181396, 0.12135430425405502, -0.2088388204574585, 0.1337534785270691, -0.20231419801712036, 0.09761117398738861, 0.012906325049698353, 0.11291971057653427, -0.17637737095355988, 0.009153061546385288, 0.13725626468658447, -0.21910029649734497, -0.012905869632959366, -0.002200730610638857, -0.09204693138599396, -0.12704473733901978, -0.04735877364873886, -0.10360501706600189, 0.03466268628835678, 0.14153993129730225, 0.14857783913612366, 0.09155429154634476, 0.12527050077915192, 0.2505325973033905, 0.10202935338020325, 0.12475469708442688, -0.058357562869787216, 0.09573516249656677, 0.11552812159061432, -0.09241943806409836, -0.10006163269281387, -0.00473395362496376, -0.1796102374792099, -0.05062193423509598, -0.11181487888097763, 0.21192853152751923, -0.10551046580076218, -0.01839032769203186, -0.17505577206611633, -0.04443853721022606, 0.14173145592212677, -0.19939588010311127, 0.0773748829960823, -0.0030584256164729595, 0.06729255616664886, -0.15449585020542145, 0.06480402499437332, 0.016447778791189194, -0.025752833113074303, -0.07533225417137146, 0.09310246258974075, 0.0244753398001194, -0.1114170029759407, 0.049794815480709076, -0.11512601375579834, 0.12923310697078705, 0.03979457914829254, -0.0093755554407835, 0.16987529397010803, -0.12833534181118011, 0.1287272572517395, -0.1263401061296463, -0.0935579463839531, -0.07962711900472641, -0.12264689803123474, 0.12883567810058594, -0.012644384987652302, 0.007518167607486248, -0.025924015790224075, -0.018458610400557518, 0.0932873785495758, 0.19279292225837708, 0.11560550332069397, 0.042035434395074844, -0.14439059793949127, 0.12587298452854156, 0.036223094910383224, 0.08499233424663544, -0.1580294370651245, -0.03351258113980293, -0.10361611098051071, 0.13798974454402924, 0.031974684447050095, 0.10177198052406311, -0.005517616402357817, 0.10514016449451447, 0.008155856281518936, 0.01328176911920309, 0.17030276358127594, -0.13807378709316254, -0.09131379425525665, 0.07366636395454407, -0.0861378014087677, -0.13423720002174377, -0.08934676647186279, 0.08364342153072357, -0.1388603299856186, -0.052389927208423615, -0.010031167417764664, -0.08360876142978668, 0.06659220159053802, 0.035245850682258606, -0.07023195922374725, -0.09473460912704468, 0.0748400017619133, 0.15895774960517883, 0.1551070213317871, 0.052836593240499496, -0.23817004263401031, -0.021493257954716682, 0.029628176242113113, 0.16218633949756622, 0.38292595744132996, -0.06000205874443054, 0.033482614904642105, -0.058845631778240204, -0.048760056495666504, -0.019858043640851974, -0.16381877660751343, 0.01698252744972706, -0.03799637407064438, 0.2712249755859375, 0.04400881752371788, 0.08538944274187088, 0.03587847948074341, 0.01451905071735382, 0.2504192590713501, -0.14377136528491974, -0.0791984274983406, 0.17379233241081238, 0.03091384656727314, 0.5706311464309692, 0.15346142649650574, -0.0830436572432518, 0.07936897873878479, -0.005074013955891132, 0.06910108774900436, -0.10883487015962601, 0.05326676368713379, -0.14048776030540466, -0.21327485144138336, 0.14288489520549774, 0.15310676395893097, -0.22167569398880005, 0.3139083683490753, 0.004681985825300217, 0.32319748401641846, -0.09890527278184891, 0.015995942056179047, -0.00024749478325247765, 0.0017701501492410898, 0.32488328218460083, -0.120069220662117, 0.30817219614982605, 0.21150867640972137, 0.2971707880496979, 0.12672479450702667, 0.24020478129386902, -0.005939738359302282, 0.11569472402334213, 0.19370122253894806, -0.043811824172735214, 0.06901142001152039, -0.053707655519247055, -0.21746622025966644, 0.18578669428825378, 0.04260387271642685, 0.09023658186197281, 0.3348836898803711, -0.0752989873290062, -0.04385588690638542, -0.18834693729877472, -0.1096755638718605, 0.1539924144744873, -0.11401232331991196, -0.22256676852703094, 0.20439507067203522, 0.15630078315734863, -0.022326208651065826, -0.14392465353012085, 0.02499224618077278, -0.01487258356064558, -0.10464462637901306, -0.0896514505147934, -0.16168595850467682, -0.06895612180233002, 0.10565546900033951, 0.07810630649328232, 0.05041491612792015, -0.14826901257038116, -0.025148918852210045, -0.11180194467306137, -0.04974474012851715, 0.07484200596809387, 0.15882892906665802, -0.08690250664949417, 0.1034274473786354, -0.028989240527153015, -0.11246618628501892, -0.02978195808827877, -0.06205948069691658, -0.11073442548513412, -0.0020101729314774275, 0.09719234704971313, 0.13097070157527924, 0.014007477089762688, -0.041864559054374695, 0.10897109657526016, 